// AUTO-GENERATED by generate_tables.py (volfi-annulus Phase 6).  DO NOT EDIT.
// Tweaks landed: B1 shared log2approx, A2 top-octave sub-split, A1 small-h residual.
//
// ===================== RUNTIME EVALUATION RECIPE =======================
// SHARED KERNELS (bit-identical in generator + scalar + AVX-512 runtime):
//   log2approx(m), m in [1,2):
//     t=(m-1)/(m+1); u=t*t; s=LOG2_S_A*u+LOG2_S_B; g=Clenshaw(LOG2_GC,s);
//     log2approx = LOG2_SCALE * t * g          (Chebyshev deg 10 in s)
//   sigma0_poly(c) = SIGMA0_SCALE * c * Clenshaw(ERFINV_GC, ERFINV_TSC*c*c+ERFINV_TBIAS)
//   per-cell abscissa:  xl = CELL_LSCALE[cell]*log2approx(m) + CELL_LBIAS[cell]
//
// (1) MAIN TABLE  (h >= H_ATM_HI):  returns W=h^2/(2w).
//     b   = clamp((bits(h)>>H_SHIFT) - OFF_H, 0, NB-1)
//     xh  = h*HSCALE[b] + HBIAS[b]
//     k   = ((bits(c)>>52)&0x7FF) - 1023
//       if k < KLO[b] -> resurgent wing ;  if k > KHI[b] -> analytic ATM (c->1)
//     oc  = OCTBASE[b] + (k - KLO[b])
//     sb  = OCT_SBITS[oc]                          (0/1/2 extra mantissa bits)
//     sub = (bits(c) >> (52 - sb)) & ((1<<sb)-1)   (top sb mantissa bits)
//       if sub >= OCT_NSUB[oc] -> analytic ATM (infeasible c->1 sub-cell)
//     cell = CBASE[b] + OCT_CELLOFF[oc] + sub
//     m=mantissa(c) in [1,2); xl=CELL_LSCALE[cell]*log2approx(m)+CELL_LBIAS[cell]
//     dp=CELL_DP[cell], dl=CELL_DL[cell], base=CELL_OFF[cell]
//     W = sum_{i,j} COEFFS[base+i*(dl+1)+j] T_i(xh) T_j(xl);  w=h*h/(2W); sigma=sqrt(w)
//
// (2) SMALL-h RESIDUAL  (0 <= h < H_ATM_HI):  returns sigma directly.
//     sbnd = small-h band: h<0.0375->0, <0.075->1, <0.15->2, else 3
//     xh  = h*SMH_HSCALE[sbnd] + SMH_HBIAS[sbnd]
//     k   = ((bits(c)>>52)&0x7FF) - 1023
//       if k<SMH_KLO[sbnd] or k>SMH_KHI[sbnd] -> analytic small-h path
//     cell = SMH_OCTCELL[SMH_OCTBASE[sbnd] + (k-SMH_KLO[sbnd])]
//       if cell < 0 -> analytic small-h path (excluded deep corner)
//     m=mantissa(c); xl=SMH_CELL_LSCALE[cell]*log2approx(m)+SMH_CELL_LBIAS[cell]
//     R = sum_{i,j} SMH_COEFFS[base+i*(dl+1)+j] T_i(xh) T_j(xl)
//     sigma = sigma0_poly(c) + R
// =======================================================================

#ifndef VOLFI_ANNULUS_TABLES_HPP
#define VOLFI_ANNULUS_TABLES_HPP
#include <cstdint>

namespace volfi_annulus {

static const double  H_ATM_HI = 0.3;
static const double  H_BOX    = 6.6526957;
static const int     NB       = 19;
static const int     OFF_H    = 4084;
static const int     H_SHIFT  = 50;
static const int     C_EXP_BIAS = 1023;
static const int     NCELLS   = 181;
static const int     NCOEFF   = 21803;

// ---------------- B1 shared log2approx (m in [1,2)) ----------------
static const double  LOG2_SCALE = 2.8853900817779268;
static const double  LOG2_S_A   = 18.0;
static const double  LOG2_S_B   = -1.0;
static const double LOG2_GC[11] = {
  1.019510728362366,0.019853046320987205,0.00034948921239912935,
  7.335059538349656e-06,1.6774463485374075e-07,4.036869036640762e-09,
  1.00492602719776e-10,2.562636311589187e-12,6.653828157688295e-14,
  1.7520188318292921e-15,4.6651628411367276e-17,
};

// ---------------- A1 shared erfinv / sigma0 poly ------------------
static const double  SIGMA0_SCALE = 2.8284271247461903;
static const double  ERFINV_TSC   = 4.291247456896288;
static const double  ERFINV_TBIAS = -1.0;
static const double ERFINV_GC[18] = {
  0.9546984831558494,0.0741097204583709,0.006221394590246302,
  0.000650491377384702,7.552386004569645e-05,9.32275640386396e-06,
  1.1980109006303125e-06,1.5837950970299506e-07,2.1384292038866817e-08,
  2.934687271542482e-09,4.079922849617417e-10,5.732179852080756e-11,
  8.124302654491829e-12,1.1599906037102772e-12,1.6667038532536947e-13,
  2.4078107116331402e-14,3.493475405968824e-15,4.985133293454743e-16,
};

// ---------------- main table: per-band ----------------
static const double HSCALE[19] = {
  159.99999999999986,32.0,32.0,32.0,
  16.0,16.0,16.0,16.0,
  8.0,8.0,8.0,8.0,
  4.0,4.0,4.0,4.0,
  2.0,2.0,3.0642150699016413,
};
static const double HBIAS[19] = {
  -48.99999999999996,-11.0,-13.0,-15.0,
  -9.0,-11.0,-13.0,-15.0,
  -9.0,-11.0,-13.0,-15.0,
  -9.0,-11.0,-13.0,-15.0,
  -9.0,-11.0,-19.38529041940985,
};
static const int KLO[19] = {
  -12,-12,-11,-11,-11,-11,-11,-10,-10,-10,-10,-10,-9,-9,-9,-9,-9,-9,-8,
};
static const int KHI[19] = {
  -1,-1,-1,-1,-1,-1,-1,-1,-1,-2,-2,-2,-2,-2,-3,-3,-4,-5,-7,
};
static const int CBASE[19] = {
  0,13,27,39,51,63,75,87,98,109,119,129,138,146,154,161,168,174,179,
};
static const int OCTBASE[19] = {
  0,12,24,35,46,57,68,79,89,99,108,117,126,134,142,149,156,162,167,
};
// ---------------- main table: per-octave (A2 sub-split index) ------
static const int OCT_SBITS[169] = {
  0,0,0,0,0,0,0,0,0,0,0,2,0,0,0,0,0,0,0,0,0,0,1,2,
  0,0,0,0,0,0,0,0,0,1,2,0,0,0,0,0,0,0,0,0,1,2,0,0,
  0,0,0,0,0,0,0,1,2,0,0,0,0,0,0,0,0,0,1,2,0,0,0,0,
  0,0,0,0,0,1,2,0,0,0,0,0,0,0,0,1,2,0,0,0,0,0,0,0,
  0,1,2,0,0,0,0,0,0,0,0,1,0,0,0,0,0,0,0,0,1,0,0,0,
  0,0,0,0,0,1,0,0,0,0,0,0,0,1,0,0,0,0,0,0,0,1,0,0,
  0,0,0,0,0,0,0,0,0,0,0,0,0,0,0,0,0,0,0,0,0,0,0,0,
  0,
};
static const int OCT_NSUB[169] = {
  1,1,1,1,1,1,1,1,1,1,1,2,1,1,1,1,1,1,1,1,1,1,2,2,
  1,1,1,1,1,1,1,1,1,2,1,1,1,1,1,1,1,1,1,1,2,1,1,1,
  1,1,1,1,1,1,1,2,1,1,1,1,1,1,1,1,1,1,2,1,1,1,1,1,
  1,1,1,1,1,2,1,1,1,1,1,1,1,1,1,2,1,1,1,1,1,1,1,1,
  1,2,1,1,1,1,1,1,1,1,1,2,1,1,1,1,1,1,1,1,2,1,1,1,
  1,1,1,1,1,1,1,1,1,1,1,1,1,1,1,1,1,1,1,1,1,1,1,1,
  1,1,1,1,1,1,1,1,1,1,1,1,1,1,1,1,1,1,1,1,1,1,1,1,
  1,
};
static const int OCT_CELLOFF[169] = {
  0,1,2,3,4,5,6,7,8,9,10,11,0,1,2,3,4,5,6,7,8,9,10,12,
  0,1,2,3,4,5,6,7,8,9,11,0,1,2,3,4,5,6,7,8,9,11,0,1,
  2,3,4,5,6,7,8,9,11,0,1,2,3,4,5,6,7,8,9,11,0,1,2,3,
  4,5,6,7,8,9,11,0,1,2,3,4,5,6,7,8,10,0,1,2,3,4,5,6,
  7,8,10,0,1,2,3,4,5,6,7,8,0,1,2,3,4,5,6,7,8,0,1,2,
  3,4,5,6,7,8,0,1,2,3,4,5,6,7,0,1,2,3,4,5,6,7,0,1,
  2,3,4,5,6,0,1,2,3,4,5,6,0,1,2,3,4,5,0,1,2,3,4,0,
  1,
};
// ---------------- main table: per-cell ----------------
static const int CELL_DP[181] = {
  7,7,7,7,7,7,7,7,7,7,7,6,6,10,10,10,10,11,10,10,10,11,11,10,
  9,9,9,10,10,10,10,10,10,10,10,9,9,9,9,9,9,9,9,10,9,9,9,9,
  9,9,9,12,11,11,11,11,11,11,11,11,10,10,10,10,10,10,10,11,10,10,10,10,
  10,10,9,10,10,10,10,10,10,9,10,10,9,9,9,9,9,9,9,10,9,9,9,9,
  9,9,11,11,11,11,11,11,11,11,11,11,10,10,10,10,10,11,11,10,10,10,10,10,
  10,10,10,10,10,9,9,10,10,9,9,9,9,9,9,9,9,9,11,11,11,11,11,11,
  11,11,10,10,10,11,10,11,10,10,10,10,10,10,10,10,10,9,10,9,9,9,10,9,
  11,11,11,11,11,11,10,10,10,10,10,9,9,
};
static const int CELL_DL[181] = {
  8,9,9,9,9,10,10,11,11,12,16,13,14,8,9,9,9,9,10,10,11,11,12,12,
  12,13,14,9,9,9,9,10,10,11,11,13,12,12,13,9,9,9,9,10,10,11,11,13,
  12,12,13,8,9,9,9,10,10,10,11,12,12,12,13,8,9,9,9,9,10,10,11,13,
  12,12,13,8,8,9,9,9,10,10,11,13,12,12,13,8,9,9,9,9,10,11,13,12,
  12,13,8,9,9,9,9,10,11,13,12,12,13,8,8,9,9,9,10,11,13,12,12,8,
  8,9,9,9,10,11,13,12,12,8,8,9,9,9,10,11,13,12,8,9,9,9,10,11,
  13,12,8,8,9,9,10,11,13,12,8,8,9,9,10,11,13,8,8,9,9,10,11,13,
  8,9,9,10,10,11,8,9,9,10,10,9,9,
};
static const int CELL_OFF[181] = {
  0,72,152,232,312,392,480,568,664,760,864,1000,
  1098,1203,1302,1412,1522,1632,1752,1873,1994,2126,2270,2426,
  2569,2699,2839,2989,3099,3209,3319,3429,3550,3671,3803,3935,
  4075,4205,4335,4475,4575,4675,4775,4875,4996,5106,5226,5346,
  5486,5616,5746,5886,6003,6123,6243,6363,6495,6627,6759,6903,
  7059,7202,7345,7499,7598,7708,7818,7928,8048,8169,8290,8422,
  8576,8719,8862,9002,9101,9200,9310,9420,9530,9651,9761,9893,
  10047,10177,10307,10447,10537,10637,10737,10837,10947,11057,11177,11317,
  11447,11577,11717,11825,11945,12065,12185,12305,12437,12581,12749,12905,
  13061,13215,13314,13413,13523,13633,13753,13885,14017,14171,14314,14457,
  14556,14655,14765,14875,14985,15106,15226,15366,15509,15652,15742,15832,
  15932,16032,16132,16242,16362,16502,16632,16740,16860,16980,17100,17232,
  17376,17544,17700,17799,17898,18008,18128,18249,18393,18547,18690,18789,
  18888,18998,19108,19229,19361,19515,19605,19704,19804,19904,20014,20146,
  20286,20394,20514,20634,20766,20898,21042,21141,21251,21361,21482,21603,
  21703,
};
static const double CELL_LSCALE[181] = {
  2.0,2.0,2.0,2.0,
  2.0,2.0,2.0,2.0,
  2.0,2.0,2.0,6.21256743901078,
  7.603568033847857,2.0,2.0,2.0,
  2.0,2.0,2.0,2.0,
  2.0,2.0,2.0,3.419022582702909,
  4.818841679306419,6.21256743901078,7.603568033847857,2.0,
  2.0,2.0,2.0,2.0,
  2.0,2.0,2.0,2.0,
  3.419022582702909,4.818841679306419,6.21256743901078,2.0,
  2.0,2.0,2.0,2.0,
  2.0,2.0,2.0,2.0,
  3.419022582702909,4.818841679306419,6.21256743901078,2.0,
  2.0,2.0,2.0,2.0,
  2.0,2.0,2.0,2.0,
  3.419022582702909,4.818841679306419,6.21256743901078,2.0,
  2.0,2.0,2.0,2.0,
  2.0,2.0,2.0,2.0,
  3.419022582702909,4.818841679306419,6.21256743901078,2.0,
  2.0,2.0,2.0,2.0,
  2.0,2.0,2.0,2.0,
  3.419022582702909,4.818841679306419,6.21256743901078,2.0,
  2.0,2.0,2.0,2.0,
  2.0,2.0,2.0,3.419022582702909,
  4.818841679306419,6.21256743901078,2.0,2.0,
  2.0,2.0,2.0,2.0,
  2.0,2.0,3.419022582702909,4.818841679306419,
  6.21256743901078,2.0,2.0,2.0,
  2.0,2.0,2.0,2.0,
  2.0,3.419022582702909,4.818841679306419,2.0,
  2.0,2.0,2.0,2.0,
  2.0,2.0,2.0,3.419022582702909,
  4.818841679306419,2.0,2.0,2.0,
  2.0,2.0,2.0,2.0,
  2.0,3.419022582702909,2.0,2.0,
  2.0,2.0,2.0,2.0,
  2.0,3.419022582702909,2.0,2.0,
  2.0,2.0,2.0,2.0,
  2.0,3.419022582702909,2.0,2.0,
  2.0,2.0,2.0,2.0,
  2.0,2.0,2.0,2.0,
  2.0,2.0,2.0,2.0,
  2.0,2.0,2.0,2.0,
  2.0,2.0,2.0,2.0,
  2.0,2.0,2.0,2.0,
  2.0,
};
static const double CELL_LBIAS[181] = {
  -1.0,-1.0,-1.0,-1.0,
  -1.0,-1.0,-1.0,-1.0,
  -1.0,-1.0,-1.0,-1.0,
  -3.4478021714830884,-1.0,-1.0,-1.0,
  -1.0,-1.0,-1.0,-1.0,
  -1.0,-1.0,-1.0,-1.0,
  -3.8188416793064195,-1.0,-3.4478021714830884,-1.0,
  -1.0,-1.0,-1.0,-1.0,
  -1.0,-1.0,-1.0,-1.0,
  -1.0,-3.8188416793064195,-1.0,-1.0,
  -1.0,-1.0,-1.0,-1.0,
  -1.0,-1.0,-1.0,-1.0,
  -1.0,-3.8188416793064195,-1.0,-1.0,
  -1.0,-1.0,-1.0,-1.0,
  -1.0,-1.0,-1.0,-1.0,
  -1.0,-3.8188416793064195,-1.0,-1.0,
  -1.0,-1.0,-1.0,-1.0,
  -1.0,-1.0,-1.0,-1.0,
  -1.0,-3.8188416793064195,-1.0,-1.0,
  -1.0,-1.0,-1.0,-1.0,
  -1.0,-1.0,-1.0,-1.0,
  -1.0,-3.8188416793064195,-1.0,-1.0,
  -1.0,-1.0,-1.0,-1.0,
  -1.0,-1.0,-1.0,-1.0,
  -3.8188416793064195,-1.0,-1.0,-1.0,
  -1.0,-1.0,-1.0,-1.0,
  -1.0,-1.0,-1.0,-3.8188416793064195,
  -1.0,-1.0,-1.0,-1.0,
  -1.0,-1.0,-1.0,-1.0,
  -1.0,-1.0,-3.8188416793064195,-1.0,
  -1.0,-1.0,-1.0,-1.0,
  -1.0,-1.0,-1.0,-1.0,
  -3.8188416793064195,-1.0,-1.0,-1.0,
  -1.0,-1.0,-1.0,-1.0,
  -1.0,-1.0,-1.0,-1.0,
  -1.0,-1.0,-1.0,-1.0,
  -1.0,-1.0,-1.0,-1.0,
  -1.0,-1.0,-1.0,-1.0,
  -1.0,-1.0,-1.0,-1.0,
  -1.0,-1.0,-1.0,-1.0,
  -1.0,-1.0,-1.0,-1.0,
  -1.0,-1.0,-1.0,-1.0,
  -1.0,-1.0,-1.0,-1.0,
  -1.0,-1.0,-1.0,-1.0,
  -1.0,-1.0,-1.0,-1.0,
  -1.0,
};
static const double COEFFS[21803] = {
  2.991566400329467,-0.24492047894414679,0.001295125200441262,1.8645392179108062e-05,
  2.5644118482588777e-07,2.972474247025381e-09,1.930686623819102e-11,-3.1753903787609523e-13,
  -1.7327645703068857e-14,0.016581482733808658,-0.0003543336508662794,-7.650957065502172e-06,
  -1.4028852443280304e-07,-2.0323331310194536e-09,-1.5832916851713693e-11,3.041820018224214e-13,
  1.8959406728926562e-14,5.941730491510726e-16,-6.775722481193936e-05,2.068486374260895e-06,
  4.7750677860219955e-08,8.894672999110111e-10,1.1559583088088887e-11,6.349086649707256e-15,
  -5.8717215129642565e-15,-2.4537228436332704e-16,-6.976962212371667e-18,4.417435750022056e-07,
  -1.5816518963968966e-08,-3.732768449762863e-10,-6.8636583294585436e-12,-7.716915148799056e-14,
  6.943986477142995e-16,7.467781781918408e-17,2.7850171697550518e-18,7.527163279498923e-20,
  -3.269859242687643e-09,1.3158066063025336e-10,3.1461692589110763e-12,5.672437319158732e-14,
  5.310616435691816e-16,-1.2112996228557184e-17,-8.630877395847509e-19,-3.025480198737579e-20,
  -7.853542299299939e-22,2.594537514997123e-11,-1.1460800548310497e-12,-2.7619866349327484e-14,
  -4.862725208357383e-16,-3.575711041733772e-18,1.6102624497480414e-19,9.564958510271797e-21,
  3.212882954389671e-22,8.179294642515232e-24,-2.1515900848246323e-13,1.0275788298046149e-14,
  2.4879052784399004e-16,4.2643780406393576e-18,2.2208418140797358e-20,-1.940071934308617e-21,
  -1.0352951365588347e-22,-3.4464987014566765e-24,-1.051154817358046e-25,1.8396700364346116e-15,
  -9.398843729876125e-17,-2.2811359448852686e-18,-3.7971463656484914e-20,-1.1047314484015504e-22,
  2.2274424469156964e-23,1.0090992124803368e-24,9.065957037239586e-26,-1.364930926866149e-25,
  2.51284727475022,-0.23359008518231572,0.001545520159952458,2.324483569552188e-05,
  3.194003348933274e-07,3.2471270231059686e-09,-6.344290900287807e-13,-1.2483132173867312e-12,
  -4.4457932870314556e-14,-1.0942063295585313e-15,0.015805873015611673,-0.00042284836352880675,
  -9.538087105032598e-06,-1.7471644112895814e-07,-2.2195701294068503e-09,5.443983847163238e-13,
  1.1954175421095227e-12,4.863890305807103e-14,1.3464328420717248e-15,2.86048676092179e-17,
  -6.32022607279708e-05,2.496276644414607e-06,5.9505757982674086e-08,1.064915821256881e-09,
  9.565597047409776e-12,-2.4821970189347196e-13,-1.6869460305151193e-14,-5.807223860376846e-16,
  -1.467970296347673e-17,-2.708861026460799e-19,4.0684987464523295e-07,-1.9151337123054818e-08,
  -4.621894127560113e-10,-7.85773477043969e-12,-3.738912868367922e-14,3.753502271002461e-15,
  1.9617528487077763e-16,6.273531980616598e-18,1.4699193971464108e-19,2.2454529470713106e-21,
  -2.9792888293249386e-09,1.595898478642928e-10,3.865278177183163e-12,6.181168658276567e-14,
  -3.9704257819628715e-18,-4.638788955451309e-17,-2.1534898998684755e-18,-6.526878307302032e-20,
  -1.4114944037972725e-21,-1.6052022977476172e-23,2.3413314254359667e-11,-1.391009335133199e-12,
  -3.364196971047359e-14,-5.016014397583372e-16,2.8405549723753604e-18,5.326239831454801e-19,
  2.2978567118555548e-20,6.645521884977572e-22,1.3191273998083247e-23,4.402531056227202e-26,
  -1.9245340458736515e-13,1.2472834798394867e-14,3.0027579206795645e-16,4.136403651715387e-18,
  -5.0777611184880895e-20,-5.892703782852972e-21,-2.4101466435350526e-22,-6.620958428214064e-24,
  -1.4697702410702118e-25,7.347449051156699e-26,1.6320092620594662e-15,-1.1404517078266483e-16,
  -2.7270127471983333e-18,-3.435076349811821e-20,6.953394836771317e-22,6.383489292232592e-23,
  2.5891587419473013e-24,2.311775581540117e-26,-1.0922524842441839e-25,-2.6493434595415484e-26,
  2.058979100511742,-0.2200184371946682,0.001857220469998915,2.885865022650651e-05,
  3.803511641037193e-07,2.6089294441732904e-09,-6.271857241495824e-11,-3.486796844234957e-12,
  -1.0181251404929823e-13,-2.1594767757499743e-15,0.01487681477359935,-0.0005081295170251768,
  -1.1840849401398552e-05,-2.0801965994151795e-07,-1.7818424140386158e-09,5.1513823861155145e-11,
  3.3383207571760643e-12,1.113603993823346e-13,2.656046195642095e-15,4.166701916812132e-17,
  -5.7691715993956094e-05,3.025488556302968e-06,7.295029749771383e-08,1.14964901489272e-09,
  -1.0787139059477679e-12,-9.10700339778031e-13,-4.1238666023657746e-14,-1.2126345546345177e-15,
  -2.4410300301039167e-17,-1.8636324275083795e-19,3.6454892599888953e-07,-2.322848767404259e-08,
  -5.565774265651568e-10,-7.529392740051772e-12,1.0203561348603774e-13,1.1169642726439611e-14,
  4.483552348773726e-16,1.2002649859170716e-17,1.920024459790122e-19,-1.2108422063944143e-21,
  -2.626898911979789e-09,1.9338572313333144e-10,4.5649941032331686e-12,5.0799430823144185e-14,
  -1.6246512156310428e-15,-1.254662352983417e-16,-4.6617955947118744e-18,-1.1339186753426845e-19,
  -1.2436580867460552e-21,4.633606930307244e-23,2.034432189940101e-11,-1.682410146181084e-12,
  -3.892053340967787e-14,-3.337791557644537e-16,2.076203313237875e-17,1.3547081856933461e-18,
  4.728504276832184e-20,1.0320169656969815e-21,4.672060396952253e-24,-8.581140094919778e-25,
  -1.6496549527972905e-13,1.5048432870036183e-14,3.399395088365294e-16,1.996048653939623e-18,
  -2.436618439933426e-19,-1.43026121029899e-20,-4.716149834422207e-22,-9.119152119978606e-24,
  3.720025613327599e-26,4.343587866919995e-26,1.3810102763772769e-15,-1.371995073428964e-16,
  -3.0179622821802887e-18,-9.075658117064093e-21,2.736572109793728e-21,1.4874145938825075e-22,
  4.645386575238462e-24,7.330923841019344e-26,-3.2036026583039395e-27,-5.0811732724204036e-26,
  1.6349718070146955,-0.20366876363316078,0.00224138614073364,3.523909427939559e-05,
  4.0733205603284675e-07,-5.15938352235813e-10,-2.1922948418802036e-10,-8.202993387006888e-12,
  -1.9801017561274596e-13,-2.9451787134278745e-15,0.01375765517493639,-0.0006132133086326416,
  -1.4456691753185117e-05,-2.2268368562742704e-07,3.574536151493714e-10,1.7995659016420608e-10,
  7.85094942652977e-12,2.1645285666380587e-13,3.616534869354651e-15,-1.2003139680067523e-17,
  -5.1014828387916304e-05,3.6621831300016215e-06,8.583182186819815e-08,9.197343864652876e-10,
  -3.2405885487905644e-11,-2.3974503791595543e-12,-8.607947847102269e-14,-1.9334396211478417e-15,
  -1.2071876977458531e-17,1.3162486164346857e-18,3.1338676308458724e-07,-2.7993374228909213e-08,
  -6.275294302078423e-10,-3.3996338808810324e-12,4.633487580093611e-13,2.652419009994158e-14,
  8.44171610563576e-16,1.440318981592969e-17,-1.8419040995155474e-19,-2.5859888416588953e-20,
  -2.202143061136035e-09,2.3166635849820053e-10,4.913045424447519e-12,-2.4766208544577672e-15,
  -5.521889549613221e-15,-2.7704092588959577e-16,-7.856187897549014e-18,-8.278299086486224e-20,
  5.0941517670170815e-21,3.794121953990661e-22,1.6661079247239218e-11,-2.001640488966014e-12,
  -3.981240702280817e-14,2.8643891456408993e-16,6.145361750466506e-17,2.8080481937125276e-18,
  7.010624041566279e-20,1.4766636905085977e-22,-8.372418773778056e-23,-4.887491589753798e-24,
  -1.3213713528304311e-13,1.777135408029759e-14,3.288545472317701e-16,-4.8824664346654276e-18,
  -6.602549002950851e-19,-2.791038950231722e-20,-5.985628604075281e-22,5.729731694900281e-24,
  1.1860495259584782e-24,5.692928210427797e-26,1.082823802747189e-15,-1.607660165211932e-16,
  -2.74475158302577e-18,6.512215588483113e-20,6.944102029245359e-21,2.7334303054766065e-22,
  4.835193014788844e-24,-1.3363019502974425e-25,-3.083886860050823e-26,1.9441482424942022e-26,
  1.24698070552655,-0.18393848936945878,0.002701845628064062,4.129583008528137e-05,
  3.2170870006304623e-07,-9.3380904061204e-09,-5.513380898886695e-10,-1.584752908880121e-11,
  -2.542219811927965e-13,1.6229599075153992e-15,0.012407410655846541,-0.0007391072567894644,
  -1.693648772242152e-05,-1.7565638220232634e-07,6.392491489899187e-09,4.523177637363961e-10,
  1.5155586065650495e-11,2.7730310560165733e-13,-2.0290963979593545e-15,-3.9461724604770376e-16,
  -4.2977997147988487e-05,4.379705350887489e-06,9.176132924039281e-08,-1.1296112119649669e-10,
  -1.0533677375947103e-10,-5.083957388175919e-12,-1.324648391511959e-13,-6.534154073506111e-16,
  1.3026139307467816e-16,7.8096290504766e-18,2.523709949009951e-07,-3.3002710372435855e-08,
  -6.024576667244199e-10,9.468916687555291e-12,1.220567491265059e-12,4.969240087642008e-14,
  9.412949424809731e-16,-1.8762942324313252e-17,-2.370040764635244e-18,-1.0640143181611295e-19,
  -1.7009809874796724e-09,2.688603647923326e-10,4.136282277042225e-12,-1.4564694494124317e-13,
  -1.2969925583036016e-14,-4.575408825500201e-16,-4.8532281700082895e-18,4.418272708670836e-19,
  3.2767642886419946e-20,1.2102787382950528e-21,1.2365156542377992e-11,-2.2848370081364636e-12,
  -2.8340962342750912e-14,1.803784156446464e-15,1.3233514289179806e-16,4.023508556338119e-18,
  -8.741450977202069e-23,-6.819219928134544e-21,-3.9761392846382273e-22,-1.2158934445465768e-23,
  -9.430664797870937e-14,1.9941425127811146e-14,1.8632526128895383e-16,-2.0533306037663056e-17,
  -1.317480996943165e-18,-3.3732454488027864e-20,4.944944602917902e-22,8.996330690855597e-23,
  4.432937337022845e-24,1.1696649091062214e-25,7.434346246553856e-16,-1.7726411198895904e-16,
  -1.1022342559412173e-18,2.2373914508357914e-19,1.2890452876847788e-20,2.660185971986467e-22,
  -9.828188165409275e-24,-1.079223068657228e-24,-6.606199788913787e-26,1.367226454080234e-26,
  0.9023367092672081,-0.16027369532548988,0.0032193391119758035,4.406442590727796e-05,
  -3.7453679336311897e-08,-2.8650784150428618e-08,-1.077156085602091e-09,-1.9547484599450253e-11,
  1.7617095076021747e-13,2.7772273548512502e-14,1.1045796306634712e-15,0.010788797980600126,
  -0.0008804641718999427,-1.8061723255811156e-05,2.1040195656559435e-08,1.959010365867349e-08,
  8.827659923120062e-10,1.8643062252889124e-11,-1.9561528328869712e-13,-3.427077417205863e-14,
  -1.512726096004288e-15,-3.328959795315818e-17,-3.351480422086644e-05,5.0708898153600195e-06,
  7.639071857620476e-08,-2.778174428027129e-09,-2.3646892943424264e-10,-7.673514220149374e-12,
  -3.4431095016879986e-14,1.0220625543516241e-14,6.141641383211005e-16,1.793171822172473e-17,
  3.855869618955106e-20,1.8219387771605735e-07,-3.695405422512798e-08,-3.3585533956808065e-10,
  3.779120503673642e-11,2.3359417870427978e-12,5.319453140418605e-14,-1.350441892597186e-15,
  -1.72348383837937e-16,-7.40041357973624e-18,-1.1960352846782585e-19,6.082813746731547e-21,
  -1.138660166454874e-09,2.9072662177713264e-10,8.387545009750199e-13,-4.258116014159754e-13,
  -2.1488027999712665e-14,-2.6392415345605943e-16,2.9172038715219164e-17,2.208696187878321e-18,
  7.101484971760964e-20,-1.3405420286691624e-22,-1.4504520073751223e-22,7.666468825131123e-12,
  -2.3833178163038817e-12,8.413152212744874e-15,4.469027011176112e-15,1.8826364860609608e-16,
  -7.878543101999305e-20,-4.2574935893152726e-19,-2.4628340538420574e-20,-5.418877139029865e-22,
  1.972226198265461e-23,2.3372253772765443e-24,-5.3994208789809664e-14,2.0046551326532472e-14,
  -2.0360749616642534e-16,-4.518261633426415e-17,-1.5746851273169431e-18,2.6923746961286114e-20,
  5.331467495730764e-21,2.4947512637681615e-22,2.604180697806886e-24,-4.1132549356035366e-25,
  -3.724569637635569e-26,3.9124054515078793e-16,-1.7157974738107208e-16,2.918105041832507e-18,
  4.461474244971769e-19,1.245958161174021e-20,-5.122730558196201e-22,-6.126431667250483e-23,
  -2.3301374753984365e-24,2.8860221031540354e-26,-3.39428407052049e-28,5.437744865180294e-27,
  0.6091763270552693,-0.13246757835730552,0.0037206088544731075,3.731695137928055e-05,
  -9.04866661725116e-07,-5.9165259982755935e-08,-1.325654438677307e-09,1.2010362900765834e-11,
  2.1154863899363723e-12,7.910541146309041e-14,8.229686810663337e-16,0.008888908218227768,
  -0.0010171405558830058,-1.5279237565218366e-05,4.952214324111471e-07,4.0394216183433263e-08,
  1.0829184797305822e-09,-1.1714624431681492e-11,-2.3214022062550964e-12,-9.75448802424854e-14,
  -1.1314960617924543e-15,1.0464936724104432e-16,-2.2920338318405216e-05,5.473058750250932e-06,
  1.5519427043577978e-08,-7.689956179546837e-09,-3.612323922434894e-10,-2.320721425315113e-12,
  6.056348803271947e-13,3.6707548694168575e-14,7.68330804663135e-16,-3.103226523831056e-17,
  -3.2269289386815574e-18,1.0752340294496936e-07,-3.71323235027929e-08,3.6559591765718993e-10,
  7.977164908742428e-11,2.540683943840329e-12,-6.46264708402008e-14,-9.428480541390266e-15,
  -3.6353436916701053e-16,1.4748545784218006e-18,9.10448347146605e-19,4.8729611228090106e-20,
  -5.708384776721489e-10,2.71120242621638e-10,-6.317452161765725e-12,-7.487732709117717e-13,
  -1.3659918470427846e-14,1.36982427037579e-15,1.0920560655622986e-16,2.426828842069992e-18,
  -1.442559008231856e-19,-1.4479880446332745e-20,-4.886543010613371e-22,3.169993432557299e-12,
  -2.05527207815689e-12,7.757331356825363e-14,6.660207180646342e-15,2.43562570008281e-17,
  -1.901486833229745e-17,-1.0731083642446913e-18,-4.27522357169304e-21,2.795001748469578e-21,
  1.7522702250258507e-22,2.8323239813537444e-24,-1.748674644606404e-14,1.591827783463811e-14,
  -8.5035977674526e-16,-5.684609203486694e-17,7.630835175737038e-19,2.242182221380022e-19,
  9.184614020463367e-21,-1.9924894898874376e-22,-3.957450787260208e-23,-1.735828501267781e-24,
  1.1365592562564035e-26,8.987353189030496e-17,-1.2482299110823734e-16,8.820308132435662e-18,
  4.65954816540116e-19,-1.6280004322404057e-20,-2.4079808546031605e-21,-6.627788206687705e-23,
  4.5177445776377705e-24,4.838244604062952e-25,7.705960245315532e-27,9.774777936786027e-27,
  0.3751847419172365,-0.10125753375132875,0.004037615014022866,1.1930171957718595e-05,
  -2.328275751108231e-06,-7.666741714790225e-08,3.7511679205041656e-10,1.2110603093777645e-10,
  4.119330582493437e-12,-2.6811164712876135e-14,-7.989187110815853e-15,-2.992519934711852e-16,
  0.006759907408753634,-0.001103205715740624,-4.8693631754950936e-06,1.27101879697242e-06,
  5.215722607343396e-08,-3.2134834004408255e-10,-1.1643146411319848e-10,-4.525822673515778e-12,
  3.1864933834972625e-14,1.0845969444463702e-14,4.45302520311605e-16,-1.4999758165137438e-18,
  -1.2209600766280915e-05,5.133304513894898e-06,-1.0938667325982011e-07,-1.2675600656146147e-08,
  -1.730414749099662e-10,2.5181598986209277e-11,1.5824198665792985e-12,1.0602138663885246e-14,
  -3.490005786118648e-15,-1.999180400735411e-16,-1.4002962187521473e-18,4.1956144493069515e-19,
  3.9578374816500975e-08,-2.988058841369093e-08,1.4761771187480123e-09,9.494586761627113e-11,
  -1.6332402583407488e-12,-3.639267863732867e-13,-1.1397158664232263e-14,5.53569622846073e-16,
  6.129890662062864e-17,1.522158930831681e-18,-9.520515850329596e-20,-9.214763673201491e-21,
  -1.0822554555208786e-10,1.8398324070150518e-10,-1.5223737867474017e-11,-5.992127768466224e-13,
  4.0355808816843394e-14,3.714110425544705e-15,1.9303516169565424e-17,-1.1898206923915689e-17,
  -6.573359010957631e-19,4.9592034880821235e-21,2.3414137322415698e-21,1.0868401604285297e-22,
  -8.650969884196616e-14,-1.1455662284733794e-12,1.4324179455756456e-13,2.8238340031587553e-15,
  -5.466438138060184e-16,-3.0548979138391726e-17,9.010551465522276e-19,1.5906911048684968e-19,
  4.481692936798862e-21,-3.40938802192141e-22,-3.338482577582073e-23,-6.2182348073486425e-25,
  5.793755966017815e-15,6.990966046317261e-15,-1.2851719566427263e-15,-1.838787029145386e-18,
  6.078759152460841e-18,1.9646669271513928e-19,-1.8939989801814318e-20,-1.6729835037373056e-21,
  -3.957384953831519e-24,6.305800899936309e-24,3.420680561653609e-25,-4.83707325790681e-27,
  -7.718473668575882e-17,-4.019480001085028e-17,1.1177839114393894e-17,-1.8979845009738974e-19,
  -6.058352947295493e-20,-6.8797462375831905e-22,2.6398401365924644e-22,1.4436374563241245e-23,
  -4.714703330620043e-25,-8.295503045856332e-26,-3.954934107078096e-27,-1.5607671240950306e-27,
  0.20490616140624637,-0.06912391940833382,0.003911964637592071,-3.5716564955798074e-05,
  -3.433573927553638e-06,-1.572205397057987e-08,4.904245036714887e-09,1.5627584684977383e-10,
  -4.645673835335878e-12,-4.555878336711194e-13,-5.8093098421791775e-15,7.235569894852689e-16,
  0.004571796581044755,-0.0010686259391949771,1.4585560321929373e-05,1.8669491682600757e-06,
  1.0027476087626573e-08,-4.0610336979028704e-09,-1.5194557798601315e-10,4.898426472700039e-12,
  5.470192915619688e-13,7.029722549578553e-15,-1.1475047667784316e-15,-6.201825890986868e-17,
  -3.2997139542601657e-06,3.6536946434105564e-06,-2.5524826716542005e-07,-9.557236028372113e-09,
  6.435284771885176e-10,4.8324620189022285e-11,-5.393823155028239e-13,-1.7246473630530332e-13,
  -4.653160389444494e-15,3.528343701538095e-16,2.766720508263999e-17,2.3472531877113104e-20,
  -5.478308646750754e-09,-1.4564373106213136e-08,2.1949837269768593e-09,5.206899579881387e-12,
  -9.193839142025828e-12,-2.2608428140793632e-13,2.980611128748179e-14,1.8617759090665334e-15,
  -4.32142289894425e-17,-8.330227840407482e-18,-1.7286966725499854e-19,2.1713788285461125e-20,
  1.2632543092040713e-10,4.951171057282732e-11,-1.6399582244368224e-11,5.197359780421209e-13,
  8.360234958084526e-14,-1.227399201842646e-15,-4.1956363366882177e-16,-7.431172712176565e-18,
  1.5266997800686221e-18,8.614679344432e-20,-2.755255151966764e-21,-4.397214649174497e-22,
  -1.2503262436131412e-12,-4.3655564076563536e-14,1.1263463179170635e-13,-8.063926985067337e-15,
  -5.775709249449937e-16,4.0687993673483104e-17,3.874942478307032e-18,-9.856278551708941e-20,
  -2.1515659031159985e-20,-2.9334640907453206e-22,8.35605331817888e-23,4.4363792504315e-24,
  1.06452249364394e-14,-1.6557040004417934e-15,-7.108958050115455e-16,8.932377077304291e-17,
  2.7151154706337403e-18,-5.68089381064933e-19,-2.4300251912279517e-20,2.5869327226045115e-21,
  2.0008946436756537e-22,-6.522433864224846e-24,-1.183828798934881e-24,-1.3962545714871002e-26,
  -8.601092171876523e-17,2.5257235789707003e-17,3.965576103351301e-18,-8.551495433506222e-19,
  9.217334756176669e-22,6.06065822952976e-21,4.6656940371324505e-23,-3.575172698953305e-23,
  -1.1424299119183048e-24,1.6016688618893905e-25,1.057547189429114e-26,-2.29475600522076e-27,
  0.09595135439684446,-0.04045340084151075,0.003166992425833088,-8.57832742010058e-05,
  -2.367299625125124e-06,1.2288989382269138e-07,4.878054358001824e-09,-2.1831937657135123e-10,
  -1.5175923623656036e-11,1.1043962827689435e-13,2.31769299462141e-14,-1.1230321698599064e-15,
  -1.9028568134591118e-16,0.002619444889286902,-0.0008666860482560388,3.4841146139535424e-05,
  1.2607140424527175e-06,-8.683684395967685e-08,-4.270492160299205e-09,1.823966490336848e-10,
  1.4077549458649014e-11,-3.730894573645855e-13,-5.4430542179054725e-14,-5.218822445433705e-16,
  9.679173324540511e-17,-1.2402651713739733e-18,1.7663377416065382e-06,1.388232414373636e-06,
  -2.83292928729876e-07,6.039026573100405e-09,1.07589059253631e-09,-2.146984555722769e-11,
  -4.409035499934304e-12,1.6137971015917043e-14,1.598248290826932e-14,1.891461814911009e-16,
  -5.582989247969319e-17,-2.0317692632762103e-18,1.2554563118910022e-19,-1.864244704500921e-08,
  7.177128033251592e-10,1.3854304885300063e-09,-1.2781689623448704e-10,-4.295781364972543e-12,
  6.971074956338744e-13,2.3061714220828306e-14,-3.007129894717713e-15,-1.401930601967015e-16,
  1.0645037022446984e-17,7.619430626481041e-19,-2.852184659815954e-20,-3.5365385755743594e-21,
  1.265608980432964e-10,-3.9281212917985606e-11,-4.6220520808657474e-12,1.1645552239267123e-12,
  -2.3429605390464246e-14,-7.032899846073516e-15,1.7706096531427934e-16,3.8815099926854305e-17,
  -6.011637204809875e-19,-1.973335460117118e-19,2.4939061671240522e-23,8.978253044904418e-22,
  1.5686582424003246e-23,-7.984397614653074e-13,3.9797319348121486e-13,-2.0213841177888645e-15,
  -7.93580949257355e-15,5.991794829237829e-16,4.0423314416066114e-17,-4.713050211918393e-18,
  -2.297652677716785e-19,2.710775466228598e-20,1.4568408121392824e-21,-1.280654348346682e-22,
  -9.037104476689269e-24,4.924594711879977e-25,4.958539891693963e-15,-3.2296892205484965e-15,
  2.3076746363775955e-16,4.2200621252448094e-17,-6.81843857486312e-18,-4.296198250984858e-20,
  5.3866121622443965e-20,-4.1251957915448044e-22,-3.497396319265613e-22,2.0699263947590776e-24,
  2.0498656636334804e-24,7.001321098146927e-27,-1.1017801582347066e-26,-3.0807409427734143e-17,
  2.409472099313555e-17,-2.934712993982894e-18,-1.395653345934969e-19,5.910318848216016e-20,
  -2.354514058277625e-21,-4.219014890450203e-22,2.7648278501117807e-23,2.699895148783733e-24,
  -1.983220094029939e-25,-1.724748169635112e-26,1.1286895245125555e-27,-3.522314725559887e-28,
  0.03680682639679627,-0.019664950074788405,0.0020041246024013466,-0.00010064484139167371,
  4.98259502547803e-07,1.1370280378056711e-07,-8.424590797014597e-09,-9.715973148582169e-10,
  -8.943923753570124e-11,-1.4252876084519414e-11,-2.267409769934962e-12,-3.4182030598579514e-13,
  -5.219550651416772e-14,-8.09207547217296e-15,-1.2628095178587315e-15,-1.9815019489386933e-16,
  -3.12653882549113e-17,0.0011930294946603968,-0.0005555238718433297,3.984112230426646e-05,
  -4.882582688552835e-07,-1.1150599004615315e-07,1.5650736518782988e-09,7.88755234993477e-11,
  -3.9338653861739186e-11,-4.784246443728162e-12,-5.554233620684592e-13,-8.746611223295526e-14,
  -1.3762518218312364e-14,-2.0978146569032804e-15,-3.2326051616421883e-16,-5.044112317712336e-17,
  -7.91688680876976e-18,-1.2486379819823248e-18,2.6703143789090653e-06,-3.608395949319797e-07,
  -1.3757861987752122e-07,1.5171461835637693e-08,-1.1355550412438422e-10,-7.544941362028048e-11,
  6.612068993215732e-13,1.2415973352081442e-13,-2.876161947248146e-14,-3.800528243120529e-15,
  -3.901639247733217e-16,-6.230002926459595e-17,-1.0196491284509111e-17,-1.5602968456117647e-18,
  -2.405727387429724e-19,-3.775488562172767e-20,-5.9569527900358954e-21,-1.1080880177245949e-08,
  5.593304773315168e-09,-9.082066699001577e-11,-8.686156808780737e-11,7.689268741731915e-12,
  1.957953578472568e-13,-4.890213915117528e-14,1.6650355814683453e-16,2.4535407686764297e-16,
  -2.7699693797711814e-18,-8.472708611003965e-19,5.425802573304905e-20,8.479911005626823e-21,
  5.535306546146563e-22,9.380394176237997e-23,1.8076907642640096e-23,2.8466201005796608e-24,
  4.555100126155985e-11,-3.449760957483313e-11,3.969211524056444e-12,1.5608815875084577e-13,
  -6.687440867826759e-14,3.267127113643915e-15,3.1801168645665316e-16,-3.137788509043014e-17,
  -1.023542386292539e-18,1.933056937017549e-19,2.0191299314684607e-21,-9.910815411171355e-22,
  2.2064729546896677e-24,4.5494985380498906e-24,-6.148847430068161e-26,-2.1785906933641948e-26,
  -1.3705583978441567e-28,-1.9167708930532894e-13,1.8253047075329306e-13,-3.4194329685906745e-14,
  1.7431988433656402e-15,3.092248219865254e-16,-4.6781582758714734e-17,3.520720184873333e-19,
  3.303601344807477e-19,-1.44817408830528e-20,-1.6503307320228466e-21,1.2561835208492543e-22,
  6.734766767314828e-24,-7.950274075434316e-25,-2.3525115334964784e-26,4.252970876754864e-27,
  2.1027740264590623e-28,-3.6852589367031333e-28,8.275633228049604e-16,-9.156455728985375e-16,
  2.277470695434163e-16,-2.4694326120506533e-17,-2.7067299367240235e-19,3.452942517779942e-19,
  -2.5502643987777794e-20,-1.3807106283569797e-21,2.6259815324180243e-22,-4.400203408296754e-25,
  -1.7293728004174365e-24,4.95234673196985e-26,9.100653479788538e-27,-3.980480741618892e-28,
  2.7544308980895265e-29,-9.932458571526234e-29,3.656428962400901e-29,-3.6555160806090446e-18,
  4.492777736274188e-18,-1.361111351150983e-18,2.1192740083180802e-19,-1.1155475761109062e-20,
  -1.5881190803920769e-21,2.8571539770095306e-22,-6.558100374913066e-24,-2.0614065799552463e-24,
  1.5336102709572653e-25,8.990307334695916e-27,-1.546206097156499e-27,9.040376503255959e-29,
  -8.417402929861139e-29,1.8965427049827347e-29,-2.6665088066602414e-29,-5.468331571606869e-29,
  0.015416515326776606,-0.0034983606342607262,0.00012798442531876725,-3.097040265812826e-06,
  -3.269402591506607e-10,-1.5786260469798386e-09,-1.4575021788996202e-10,-1.104613720787745e-11,
  -9.001476651748021e-13,-7.497734401272555e-14,-6.327139657555232e-15,-5.406706258467347e-16,
  -4.669082119221096e-17,-4.068012841496646e-18,0.0005575577186736397,-0.0001158363397680673,
  3.3013251318842523e-06,-5.458630143419676e-08,-1.438926294507616e-09,-5.4247993309878335e-11,
  -5.5819225420701514e-12,-4.4802165098099873e-13,-3.6010155660226886e-14,-2.9938377076552385e-15,
  -2.526695458129129e-16,-2.1580636393145736e-17,-1.8628963022192052e-18,-1.6225972820997492e-19,
  1.9235559647769867e-06,-2.670256168618005e-07,-3.3852220446245588e-09,3.0513618420323514e-10,
  -1.2243716915745186e-11,-4.1425205489339633e-13,-2.2569190808290082e-14,-2.142604485987587e-15,
  -1.742537875023552e-16,-1.4287423051870772e-17,-1.204274625204747e-18,-1.0277487990105346e-19,
  -8.861321009333923e-21,-7.711349814646429e-22,-4.331118317452991e-09,1.2768748441906703e-09,
  -4.972024361732492e-11,-2.2538831699881586e-13,6.573614751485075e-14,-1.2191453170635528e-15,
  -5.272613385289756e-18,1.887866187494887e-18,7.285054695853212e-20,6.1141605554613084e-21,
  5.709036476460708e-22,4.914755399433704e-23,4.277626990487147e-24,3.7639716759651508e-25,
  1.0339976999423019e-11,-4.429795339467911e-12,3.3637505310855216e-13,-9.347842296242101e-15,
  -1.1168940159712008e-16,1.342629710346783e-17,-2.3116546142411694e-19,-4.916358925697301e-21,
  2.200967621743907e-22,-9.52827392082215e-25,-1.9915250644499004e-25,-6.65620509330665e-27,
  -7.128245559749395e-28,-1.25376773950693e-28,-2.5621067904589967e-14,1.4088988297384947e-14,
  -1.5429629533510624e-15,8.017124516305287e-17,-1.4974459644964983e-18,-4.517077063309183e-20,
  2.919262245715714e-21,-3.4248827781117336e-23,-1.509197974745966e-24,4.818440508328531e-26,
  9.956218732120173e-29,-8.762418773417854e-29,-1.6815393234624292e-29,1.3438623188181404e-30,
  6.525132641370085e-17,-4.319055097630108e-17,6.105832582452112e-18,-4.532628283336443e-19,
  1.7373205654413193e-20,-1.6113691710939106e-22,-1.4802352408938618e-23,6.183690395149074e-25,
  -2.8147902479561677e-27,-3.956760710804999e-28,-3.976332702391072e-29,5.477514042075927e-29,
  -5.228187417885712e-29,8.45953266380648e-29,0.009780995953801282,-0.002198196834170544,
  6.193634863600983e-05,-1.950460879198373e-06,-4.426510660720035e-08,-5.136563498650024e-09,
  -4.997900350727695e-10,-4.967729310260178e-11,-5.087639541807778e-12,-5.315385110545469e-13,
  -5.64300478088374e-14,-6.070076571942579e-15,-6.601214198383297e-16,-7.245358710814575e-17,
  -8.015334103800769e-18,0.0003661565911125201,-7.706424093409363e-05,1.6971352875761444e-06,
  -5.078501885230926e-08,-2.316482359439564e-09,-2.0076292455149279e-10,-1.994222130657595e-11,
  -1.9849667629091696e-12,-2.0301152383728565e-13,-2.1200642283741907e-14,-2.249999083239558e-15,
  -2.4196756774148315e-16,-2.6309136211919093e-17,-2.8872426966676097e-18,-3.193752995680226e-19,
  1.423311673213978e-06,-2.3103721128300253e-07,-8.833103399749917e-10,1.4525374289945942e-11,
  -1.4368793407743442e-11,-9.84761687020986e-13,-9.416436643179277e-14,-9.472716983088526e-15,
  -9.663049333945537e-16,-1.0074686303370653e-16,-1.068210679905198e-17,-1.14795115450185e-18,
  -1.2475188325682538e-19,-1.3685496858210787e-20,-1.5134280772582656e-21,-2.321736628265609e-09,
  7.503071766685081e-10,-3.178416881780783e-11,3.179919531861225e-13,2.12316326304475e-14,
  -1.0189623937019346e-16,4.486853411029932e-17,4.608841765186335e-18,4.613391260461962e-19,
  4.9152329550171603e-20,5.2729051572402995e-21,5.7086651576875535e-22,6.236503379371772e-23,
  6.865975331258506e-24,7.609819211337947e-25,4.152426974903017e-12,-1.924975626410947e-12,
  1.5451351583640667e-13,-5.1608808497207616e-15,3.6207634231702925e-17,2.7470775288557122e-18,
  -8.713744672642398e-20,-4.243206328138735e-22,-5.34727450009485e-23,-1.0956672600727927e-23,
  -1.241546292732478e-24,-1.439682986846785e-25,-1.6642784445278273e-26,-1.8993604844831917e-27,
  -2.262701434702403e-28,-7.81254405370708e-15,4.619122269680198e-15,-5.339229866801334e-16,
  3.001031624749229e-17,-8.097210637023226e-19,2.213777291666689e-21,4.986661542504001e-22,
  -1.3970504092021346e-23,-5.50598982723813e-26,1.111397909204237e-27,-4.846066777615897e-28,
  -3.5205386445746664e-29,3.07052242745279e-29,-3.363168628412909e-30,-2.1947781139336347e-29,
  1.521383946044419e-17,-1.0775219996157283e-17,1.6091747597836612e-18,-1.2661762963171036e-19,
  5.572016970858435e-21,-1.197269666678728e-22,-4.178900976419711e-25,9.666963586305032e-26,
  -2.0144681644913648e-27,1.0854385772090754e-29,-4.342902105041286e-29,-2.3260825007351006e-29,
  8.793859505274644e-29,-1.241277760979427e-29,-3.442237941101692e-29,3.08522718430365,
  -0.24687176115520923,0.0012532415914711114,1.7878690649361314e-05,2.452378417076397e-07,
  2.8789788659098244e-09,2.0674969960260086e-11,-2.2331268872546386e-13,-1.4322837176877546e-14,
  0.07574330375916889,-0.0015574960620398036,-3.33265834482574e-05,-6.094920238908907e-07,
  -8.944727833619946e-09,-7.714520186800574e-11,9.679495595555564e-13,7.107909972543421e-14,
  2.289565329340997e-15,-0.0013622502126992325,4.008648708540396e-05,9.201128972546935e-07,
  1.7187104078954595e-08,2.3048122778954643e-10,5.655340403016121e-13,-9.588090258999669e-14,
  -4.204552323506433e-15,-1.2176653946283324e-16,3.970390906658712e-05,-1.3660745295686937e-06,
  -3.207972202917945e-08,-5.93670091412262e-10,-7.051334262981068e-12,3.7441670458019083e-14,
  5.582491987000135e-15,2.1489992197478493e-16,5.914988647557176e-18,-1.3137044839539894e-06,
  5.0685162050005886e-08,1.2070513957838295e-09,2.198737456884338e-11,2.2512264151538507e-13,
  -3.561642159993276e-15,-2.9140115532841537e-16,-1.0483660584318628e-17,-2.776938298190536e-19,
  4.658539763692381e-08,-1.969529566039506e-09,-4.7320394830798066e-11,-8.45133158892581e-13,
  -7.182746702776801e-15,2.2375348435592007e-16,1.4521311705847127e-17,4.994062765080421e-19,
  1.2785114165812485e-20,-1.726288398759481e-09,7.879462857333414e-11,1.903779448676981e-12,
  3.3244571920215456e-14,2.2123091141285585e-16,-1.2369198030145737e-17,-7.055495334502376e-19,
  -2.3445699551451504e-20,-5.808667977952868e-22,6.595034667690081e-11,-3.2161540020945115e-12,
  -7.797128720450315e-14,-1.3283451590465571e-15,-6.240437446217626e-18,6.437139594841867e-19,
  3.3742661264611847e-20,1.0898637604714736e-21,2.625380407665006e-23,-2.5765885650808556e-12,
  1.3320917464570005e-13,3.2353293056162847e-15,5.3670613071274757e-17,1.4050165257877207e-19,
  -3.2367169541326267e-20,-1.5965001772177187e-21,-5.029221160623489e-23,-1.196265448799745e-24,
  1.0240545890438519e-13,-5.579259608186717e-15,-1.3558898026859657e-16,-2.1863255998447176e-18,
  -8.771204266608771e-22,1.592259270380638e-21,7.49100071963425e-23,2.408718213373516e-24,
  -4.7462741968738965e-26,-4.1256700565499806e-15,2.3574017154899084e-16,5.727105321165711e-18,
  8.960891633643853e-20,-1.7631213372001378e-22,-7.715541401774004e-23,-3.52091413052502e-24,
  -7.789208800450647e-26,1.7474191897857996e-26,2.602239056605987,-0.23591641040217767,
  0.001493307681374394,2.2286833183235458e-05,3.069371479772826e-07,3.2318535096139352e-09,
  5.201610089392447e-12,-1.0030941381468202e-12,-3.7571832872321716e-14,-9.45146381230692e-16,
  0.07233675121024027,-0.0018559023159490345,-4.154374289004492e-05,-7.628360222912845e-07,
  -1.0042225468917921e-08,-1.955525335960892e-11,4.355277323156218e-12,1.8651012019043297e-13,
  5.27940449484068e-15,1.1542592978952923e-16,-0.0012740190608977592,4.833487401180068e-05,
  1.1483212849748587e-06,2.0790984141341128e-08,2.0652320456191857e-10,-3.695893765106935e-12,
  -2.8618469432489737e-13,-1.0126859834491522e-14,-2.6230873979337844e-16,-5.090652386881326e-18,
  3.669128345838668e-05,-1.6530103007370396e-06,-3.982575293756833e-08,-6.907305533887227e-10,
  -4.344669555853134e-12,2.698334344204914e-13,1.5053855038050734e-14,4.934660396860082e-16,
  1.1942069762468536e-17,1.9981606838237911e-19,-1.2018044795560205e-06,6.144974024438963e-08,
  1.4886082501723465e-09,2.4519008971058213e-11,5.411585315551807e-14,-1.52897022683409e-14,
  -7.437628319962794e-16,-2.3132198228012906e-17,-5.227492748499913e-19,-7.115514864678941e-21,
  4.223459950712606e-08,-2.3901223307098937e-09,-5.79272887702722e-11,-8.99624575053646e-13,
  2.1856607853399604e-15,7.949837635184445e-16,3.565652504054172e-17,1.0611595445218407e-18,
  2.2249394994797955e-20,2.191738891255572e-22,-1.5521800707426372e-09,9.565472249469265e-11,
  2.3120978594081756e-12,3.3619642853413015e-14,-2.6101353042946325e-16,-3.9633089724703544e-17,
  -1.6792673652099705e-18,-4.7979146460439674e-20,-9.235532517963227e-22,-4.728355494389226e-24,
  5.8843454024757e-11,-3.904058909389427e-12,-9.391029517498996e-14,-1.2689420907430408e-15,
  1.7751494227289617e-17,1.928027227187259e-18,7.815743493502022e-20,2.145734075336792e-21,
  3.7399532262278235e-23,-1.8787655973860688e-26,-2.282263718911981e-12,1.6164078231673902e-13,
  3.863253073177527e-15,4.809657691816283e-17,-1.0280981163219984e-18,-9.231408267731971e-20,
  -3.606925515987199e-21,-9.503167357799278e-23,-1.457452476824779e-24,8.610032783882369e-26,
  9.008104954943835e-14,-6.76597487882014e-15,-1.6047295918383453e-16,-1.8222885479013106e-18,
  5.523535248504596e-20,4.371356184451981e-21,1.65353756140101e-22,4.2765233543304156e-24,
  -8.699086006617017e-27,3.2564027550545806e-26,-3.605100977136402e-15,2.856577514886235e-16,
  6.716667027850623e-18,6.872079773618487e-20,-2.843247945641507e-21,-2.0534840640801187e-22,
  -7.55905952790102e-24,-1.8817842795754585e-25,1.0083677129952425e-25,-3.30214998359733e-26,
  2.143261759197144,-0.22281179647343655,0.0017923376748717572,2.7709255561425228e-05,
  3.6969142821369843e-07,2.846627399325381e-09,-4.599469643380398e-11,-2.9173055133312576e-12,
  -8.792266239209241e-14,-1.928347380693676e-15,0.06826169071725391,-0.002227582302669127,
  -5.1650542565572394e-05,-9.187878260742463e-07,-8.848189834387018e-09,1.7109457954928591e-10,
  1.2672211005761772e-11,4.365666735452528e-13,1.0775518012080258e-14,1.8465686436253686e-16,
  -0.0011673386007720566,5.856698763209122e-05,1.4136816863329074e-06,2.3015054809449714e-08,
  3.528499828519686e-11,-1.509737903948852e-11,-7.171437358810103e-13,-2.1739684373071628e-14,
  -4.64373250902249e-16,-4.989956569243197e-18,3.303994186462265e-05,-2.005388683849145e-06,
  -4.827503876604685e-08,-6.918823066758889e-10,6.035205418244236e-12,8.466334548358999e-13,
  3.526120760380551e-14,9.810761691665874e-16,1.7532695772173098e-17,1.4138798927667223e-20,
  -1.066074063760919e-06,7.451945569992822e-08,1.7741090956975355e-09,2.1711731829820213e-11,
  -4.932820900364925e-13,-4.299839257784703e-14,-1.6548817464924103e-15,-4.239165694281603e-17,
  -5.851801231397531e-19,1.0026574304432215e-20,3.6958191495704966e-08,-2.894561397516595e-09,
  -6.780642825600942e-11,-6.79348771792281e-13,2.948421887124582e-14,2.0914914716357647e-15,
  7.574910769447863e-17,1.774904857989982e-18,1.569488706545162e-20,-9.580382273819719e-22,
  -1.3411966120992666e-09,1.1561727107498279e-10,2.6558323372599247e-12,2.0395636191777643e-14,
  -1.5826246735721813e-15,-9.931635878712307e-17,-3.4109233539557237e-18,-7.218856141900332e-20,
  -1.8338011043359454e-22,6.645841920273703e-23,5.0241658714088666e-11,-4.70771848001373e-12,
  -1.0576944328355837e-13,-5.518026355447141e-16,8.058006206688071e-17,4.64442722143241e-18,
  1.5173249777597039e-19,2.8449517444189525e-21,-1.667094346611503e-23,-4.015551434264052e-24,
  -1.926560546791105e-12,1.9440008355384412e-13,4.262874952195634e-15,1.1185526170576407e-17,
  -3.978456415815882e-18,-2.1488828767309375e-19,-6.683109851886581e-21,-1.0773075042309205e-22,
  1.9387003986278174e-24,1.7845375211286922e-25,7.521206448593102e-14,-8.113949349993872e-15,
  -1.7333853290194558e-16,1.9088194698537998e-20,1.9256078585889227e-19,9.864127781887099e-21,
  2.919231659083856e-22,3.857128813395231e-24,-1.1459761746785469e-25,5.706261266163668e-26,
  -2.9782381117265645e-15,3.415313383371258e-16,7.096037011779489e-18,-2.1274032628268894e-20,
  -9.19256679398194e-21,-4.500429184849708e-22,-1.2721715097813618e-23,-8.174148460946437e-27,
  5.879339644705977e-26,-7.834706668045362e-26,1.7131033073187292,-0.20703872175180427,
  0.0021619320001133122,3.398540640504365e-05,4.0702343040010433e-07,3.72233362385165e-10,
  -1.791368654436686e-10,-7.06736129090676e-12,-1.7766410976441304e-13,-2.9258916499436434e-15,
  0.06335696247116811,-0.0026869039869755946,-6.334575632230812e-05,-1.0115228603081075e-06,
  -1.1672976228830262e-09,6.670077208205981e-10,3.070743733833074e-11,8.824774864168346e-13,
  1.6365455163532376e-14,4.831969645596417e-17,-0.0010380334822432046,7.09605816606724e-05,
  1.6796144561118896e-06,1.9990138831257634e-08,-4.972489273513035e-10,-4.1395141165166966e-11,
  -1.547004167427956e-12,-3.7227440086601084e-14,-3.81739074543409e-16,1.653280960946815e-17,
  2.8618898843189036e-05,-2.4215212918665213e-06,-5.5262354356082416e-08,-4.0344504540304405e-10,
  3.3964440992895536e-11,2.0804142966350386e-12,6.938088956410313e-14,1.350494746734615e-15,
  -4.085063831775325e-18,-1.6651090386134532e-18,-9.021651571082364e-07,8.953880906417041e-08,
  1.9507481179431604e-09,4.3479210417071195e-12,-1.854647115926302e-12,-9.833053382858381e-14,
  -2.962814343402077e-15,-4.2000634686720366e-17,1.2179860467458243e-18,1.1510220350446766e-19,
  3.060901525382735e-08,-3.4576951071063213e-09,-7.138049559002691e-11,2.430969183006801e-13,
  9.359105781840182e-14,4.506172039437284e-15,1.2213588270825822e-16,9.419417627310658e-19,
  -1.020594704808248e-19,-6.841499628982978e-21,-1.0883639863899778e-09,1.3722926413039785e-10,
  2.666871891750094e-12,-2.592305037416337e-14,-4.540559577409435e-15,-2.0253075595817266e-16,
  -4.8714433580743155e-18,2.892169214200817e-21,6.680479917168046e-21,3.7383021497925896e-22,
  3.9980107153777384e-11,-5.5499756957286284e-12,-1.0088284014575386e-13,1.702058262103728e-15,
  2.1520307394863337e-16,8.976086510425878e-18,1.8726046031774515e-19,-2.2276300410495434e-21,
  -3.9081618946272427e-22,-1.9329882301754578e-23,-1.5042497229819196e-12,2.275704484320871e-13,
  3.842888574427843e-15,-9.633752563707505e-17,-1.0043934533852969e-17,-3.9339501481644344e-19,
  -6.863567721406933e-21,1.9550714861026453e-22,2.140819715710908e-23,9.425340357551674e-25,
  5.764667155836679e-14,-9.42977637318622e-15,-1.46816684056427e-16,5.079681715546543e-18,
  4.636755723970899e-19,1.707579870645573e-20,2.344129121262121e-22,-1.3069420036671793e-23,
  -1.1024515527272668e-24,-4.391202346378249e-26,-2.241500489343426e-15,3.939844774382603e-16,
  5.606675883575799e-18,-2.5712895913038113e-19,-2.1230695265416436e-20,-7.346355514684818e-22,
  -7.086780975689557e-24,7.629111000960356e-25,9.176033393721284e-26,-8.591408566862306e-27,
  1.3176900967894707,-0.18800259299174094,0.002608105774648513,4.024367531778698e-05,
  3.5172128666523335e-07,-7.038517468710941e-09,-4.716355812639674e-10,-1.426796231559867e-11,
  -2.571472133967301e-13,-1.470838252902897e-16,0.0574385866228191,-0.0032412206560793132,
  -7.500067918499228e-05,-8.739920112158123e-07,2.1840465405312645e-08,1.7565966561990231e-09,
  6.200895198557815e-11,1.2780914893631996e-12,8.731136054305658e-16,-1.2520321317139644e-15,
  -0.0008820620937659231,8.514392201716388e-05,1.836900396309573e-06,3.0256096443110725e-09,
  -1.784083047629162e-09,-9.14125890307528e-11,-2.576603440424532e-12,-2.5620929891034393e-14,
  1.7279173717049185e-15,1.2273197643546607e-16,2.3327438830835218e-05,-2.8699376854821642e-06,
  -5.514458134666136e-08,5.749295513225622e-10,9.487096947283765e-11,4.099606285098344e-12,
  9.021499870937184e-14,-6.54905104380692e-16,-1.5831584121390906e-16,-7.920610256466009e-18,
  -7.0778765440855e-07,1.0467302090525493e-07,1.7467002500718165e-09,-4.517887035233335e-11,
  -4.582733828865806e-12,-1.736766461621776e-13,-2.632704155077528e-15,1.1285054726985092e-16,
  1.0325907450698891e-17,4.2495674694160214e-19,2.3154958958473884e-08,-3.983724499566835e-09,
  -5.5988034294400535e-11,2.6194330314332506e-12,2.1199548645106998e-13,7.075094706007816e-15,
  4.902301982919125e-17,-8.680456302872887e-18,-5.823070143323142e-19,-2.0316806886790864e-20,
  -7.946547549198279e-10,1.5573835122327684e-10,1.7671976779450549e-12,-1.3667089565058137e-13,
  -9.56234808994679e-15,-2.7806591713734077e-16,9.926446096883458e-19,5.402689324610068e-19,
  3.0165232258380503e-20,8.84478296528324e-22,2.818893830750444e-11,-6.201816438172277e-12,
  -5.3223854004154406e-14,6.7691714621736684e-15,4.239786346913177e-16,1.0500313376446354e-17,
  -1.8748379494138796e-19,-3.03379987319899e-20,-1.4735537835456037e-21,-3.494210080609618e-23,
  -1.0243758351671646e-12,2.5031782666871253e-13,1.4434571084501712e-15,-3.2520293236859017e-16,
  -1.8555229222016416e-17,-3.7639939572759087e-19,1.4681755751963512e-20,1.6006178412203118e-21,
  6.876963056489732e-23,1.214543730687317e-24,3.791240204127734e-14,-1.0207415146923974e-14,
  -2.965152639830301e-17,1.531655854783122e-17,8.033717152940843e-19,1.2468959989406955e-20,
  -9.294854709216278e-22,-8.091437394343741e-23,-3.0776527128731426e-24,-2.0412256024986548e-26,
  -1.4232657261373449e-15,4.1959974718129665e-16,-3.6786170883052723e-22,-7.114512104230463e-19,
  -3.445299898371596e-20,-3.5695089337337014e-22,5.323653468914849e-23,3.960325199509822e-24,
  1.3769904765940039e-25,7.343684761330777e-27,5.403782896190715e-17,-1.7360710257345183e-17,
  5.1217842636062794e-20,3.2710271280270016e-20,1.4643743309953123e-21,6.844324075762324e-24,
  -2.845322831212008e-24,-2.2400107918249514e-25,3.0159561454695392e-27,-8.641277843594752e-27,
  0.9641365275001028,-0.16512581676799612,0.0031177474187402644,4.3978150780981015e-05,
  6.085187666016794e-08,-2.400659874848372e-08,-9.702088006914067e-10,-1.998050254955961e-11,
  1.8638464412453452e-14,2.0212967716212744e-14,9.155167544617818e-16,0.05032924806184416,
  -0.003873983575903029,-8.193881604398743e-05,-1.5114671316182042e-07,7.451430143593537e-08,
  3.613647922939966e-09,8.683718092820694e-11,-9.275431248806554e-14,-1.1312881463610156e-13,
  -5.7058309231235094e-15,-1.5209486881218798e-16,-0.0006974122981253369,9.933777681361413e-05,
  1.6304656619088788e-06,-4.3571109059723425e-08,-4.234072927066372e-09,-1.5010009379968252e-10,
  -1.5658578461821415e-12,1.4191734888480233e-13,1.0120446513149005e-14,3.4483180285095884e-16,
  3.9773995613878864e-18,1.719100681859653e-05,-3.250783592845587e-06,-3.61014929158696e-08,
  2.845893425216619e-09,1.9271573715944795e-10,5.144111136831961e-12,-5.463284776378479e-14,
  -1.200951090212023e-14,-5.902775144342272e-16,-1.3470700857580905e-17,2.1599959613307231e-19,
  -4.872474829566568e-07,1.1495400103314465e-07,6.438568443423628e-10,-1.4777489383112094e-10,
  -8.171322860649485e-12,-1.4540631670110038e-13,7.8290973202077e-15,7.316221439520592e-16,
  2.785707687517361e-17,2.713401390337753e-19,-3.5396650952426176e-20,1.4886838162462222e-08,
  -4.237659228100816e-09,3.366933431357465e-13,7.077769416343025e-12,3.3171467232532035e-13,
  2.5325041048278194e-15,-5.659823514370459e-16,-3.841123738447041e-17,-1.113686538917478e-18,
  1.1089249457034958e-20,2.896658724195011e-21,-4.763222224584633e-10,1.6033527453185186e-10,
  -9.506121920215465e-13,-3.254058774497097e-13,-1.2981883860880989e-14,6.229074048058328e-17,
  3.3514647813537305e-17,1.837302279114417e-18,3.6235765811473127e-20,-1.7878326043448124e-21,
  -1.8730881565788068e-22,1.5706537241751645e-11,-6.174858408369397e-12,7.380031374902031e-14,
  1.4592108068076184e-14,4.890184873215217e-16,-1.0285608355771223e-17,-1.79441473438153e-18,
  -8.179225671936154e-20,-7.332527405670165e-22,1.4370356994029188e-22,1.0602943505943796e-23,
  -5.283541096661356e-13,2.408558309963236e-13,-4.373666798112856e-15,-6.431987693882534e-16,
  -1.757501836414598e-17,7.7267501221316e-19,9.020124737193415e-20,3.407736977102553e-21,
  -1.6514908692838948e-23,-9.325531318297173e-24,-5.396903231014534e-25,1.8001355137310304e-14,
  -9.484473619123178e-15,2.329902205114065e-16,2.798592650065999e-17,5.90571673380934e-19,
  -4.733172300064405e-20,-4.334881919007376e-21,-1.3195463624690973e-22,3.2427167984286545e-24,
  5.497896611883987e-25,2.2725139925677217e-26,-6.176593260150076e-16,3.762041573884248e-16,
  -1.173386287007949e-17,-1.204925706245426e-18,-1.7697194297451594e-20,2.6290847287818714e-21,
  2.011386119979102e-22,4.631639740566847e-24,-2.7512478514678473e-25,-3.081047295208645e-26,
  -1.199451384389631e-26,0.6604799445868499,-0.13810194499069622,0.003630892165100192,
  3.966802501733107e-05,-6.931778087685777e-07,-5.2967662298939506e-08,-1.3512123358272523e-09,
  1.0477888938925647e-12,1.603150730685441e-12,7.05385238177371e-14,1.2117165106046236e-15,
  0.041938391695308434,-0.0045102967849497575,-7.387363948197008e-05,1.7214293044972362e-06,
  1.6435182026622483e-07,5.028196088225753e-09,-4.947309421524323e-12,-7.999302750671651e-12,
  -3.970148090394947e-13,-7.685465688690618e-15,2.364679654540276e-16,-0.0004883144338647341,
  0.00010890690739261178,6.01065531753824e-07,-1.3521482783365014e-07,-7.051479618408678e-09,
  -9.189742807942626e-11,8.760760376291834e-12,6.446317942806342e-13,1.827668222673089e-14,
  -2.221043923320978e-16,-4.688481177613127e-17,1.0550187713813327e-05,-3.3439573724068363e-06,
  1.9299574031940974e-08,6.524062502451044e-09,2.428591166764465e-10,-2.6209545401428714e-12,
  -6.909543882077414e-13,-3.2344324876289825e-14,-2.983050485118068e-16,5.337974742612556e-17,
  3.7155901162394625e-18,-2.5945144507194307e-07,1.1067627266972834e-07,-1.9534349931474893e-09,
  -2.828283984994922e-10,-7.039844848885577e-12,3.813501687015034e-13,3.864897875850357e-14,
  1.2093559412581021e-15,-2.589752409972543e-17,-4.442037190448857e-18,-2.0071719423553691e-19,
  6.7451213491511985e-09,-3.808013138704402e-09,1.1525336551431799e-10,1.162972597782006e-11,
  1.4426749165387873e-13,-2.6444416026428395e-14,-1.8336425973895014e-15,-3.020021498073586e-17,
  3.2085821006635518e-18,2.6986243162949373e-19,7.891899358477489e-21,-1.7781728219173874e-10,
  1.3405027659981293e-10,-5.868538987503327e-12,-4.610004528761955e-13,6.571314199829542e-16,
  1.4873217654152993e-15,7.742969874259771e-17,-1.0300082607543545e-19,-2.3255832363360567e-19,
  -1.3583688585356768e-20,-1.7703034516159614e-22,4.573444329289386e-12,-4.785602539160598e-12,
  2.794420475765923e-13,1.7699362863739123e-14,-3.136443255440053e-16,-7.519239580348554e-17,
  -2.924744254636467e-18,7.833855590873819e-20,1.3729516959431647e-20,5.839593763461281e-22,
  -5.008199258990285e-24,-1.0810750076376781e-13,1.7228916500693865e-13,-1.2814136241543919e-14,
  -6.573627815054439e-16,2.503369196278829e-17,3.549127314936634e-18,9.549605004435439e-20,
  -6.867501159568404e-21,-7.172224650012544e-22,-2.0838323618522228e-23,9.661033992417727e-25,
  1.9999268476599135e-15,-6.2296237990626445e-15,5.736869014959893e-16,2.3464288269535744e-17,
  -1.533188301391649e-18,-1.591286065101471e-19,-2.342916802151462e-21,4.488798827970534e-22,
  3.4208910524192965e-23,5.274400444836499e-25,-8.082971080107452e-26,-4.5378023044175896e-18,
  2.254803769602466e-16,-2.5260911992376067e-17,-7.934546015517587e-19,8.361522949386964e-20,
  6.831690172908296e-21,9.11781363569858e-24,-2.5627289836949856e-23,-1.5119904049884262e-24,
  6.3676869401946975e-27,1.6757280034762997e-26,0.4146375504661395,-0.10743066023351698,
  0.004000045866121124,1.8486958669005026e-05,-2.0337397914028808e-06,-7.670699304176055e-08,
  -1.904125351176458e-10,9.56235760960896e-11,4.06333545541076e-12,2.1736349438575063e-14,
  -5.557803008755136e-15,-2.808635816354581e-16,0.032428493112765494,-0.0049668436462109835,
  -3.4416144800782276e-05,5.045016407781921e-06,2.375306660560323e-07,6.625253768685272e-10,
  -4.1933699325192436e-10,-2.044174596608095e-11,-1.34646133990322e-13,3.4075975700254866e-14,
  1.911142704257678e-15,2.4573723036749748e-17,-0.00027220850581976787,0.00010527612564063123,
  -1.70300689780641e-06,-2.442524130991595e-07,-5.077397626204242e-09,3.758837213196968e-10,
  3.009754910115379e-11,5.510907784298798e-13,-4.541357806416984e-14,-3.642177689708359e-15,
  -7.990739969510707e-17,4.421727255997999e-18,4.3039869019590755e-06,-2.8216796173232897e-06,
  1.1543876192275171e-07,8.796216942114954e-09,-4.2552785268110914e-11,-2.8205559427919217e-11,
  -1.2073463607352158e-12,2.14766946280239e-14,4.529882178144269e-15,1.7857645457748702e-16,
  -2.8191741540069922e-18,-6.287664224408955e-19,-6.521115155207219e-08,8.050741350533526e-08,
  -5.586033524613466e-09,-2.76630320483083e-10,1.1307195024859933e-11,1.4239642831808073e-12,
  2.7490957521025878e-14,-3.3360035771308805e-15,-2.609511765544132e-16,-3.47546239443727e-18,
  6.047820811332978e-19,4.335283791419065e-20,4.843630705641413e-10,-2.3443832207703095e-09,
  2.4345813591930777e-10,7.365780909796194e-12,-7.904569023622805e-13,-5.892307023740112e-14,
  3.75969843721027e-16,2.347484692856319e-16,1.0736003430848468e-17,-2.351888339891623e-19,
  -4.8501818834525543e-20,-1.9058132088660775e-21,2.7795493892408534e-11,6.798331422360847e-11,
  -1.0080205686062876e-11,-1.3324704341282247e-13,4.2594202029041686e-14,2.06056291360111e-15,
  -9.042235047789719e-17,-1.2574345625399833e-17,-2.869567715602821e-19,3.1717179270334205e-20,
  2.7471057119634906e-21,4.015852836394298e-23,-2.2359899796737413e-12,-1.9168465277588132e-12,
  4.0436375956666806e-13,-1.3338156832331557e-15,-2.026126680285641e-15,-5.719438439762625e-17,
  6.904745222115216e-18,5.654681531562309e-19,-7.461339621952332e-22,-2.3001087288687094e-21,
  -1.2019225466972039e-22,2.023431375551697e-24,1.1753002854633676e-13,5.0705364546453965e-14,
  -1.5853892974416953e-14,3.1971421610517204e-16,8.898745706463078e-17,8.26525483770614e-19,
  -4.0411207269685623e-19,-2.1676725500726847e-20,7.518920366752145e-22,1.3060463730906086e-22,
  3.810420514286041e-24,-3.187275404145281e-25,-5.426309567320197e-15,-1.1625599914887948e-15,
  6.100087176030383e-16,-2.3195998614166403e-17,-3.675187469670655e-18,3.97706312640562e-20,
  2.06116551579148e-20,6.723065001626498e-22,-6.580140182162792e-23,-6.303867611078963e-24,
  -3.9846657836362555e-26,2.8267982515782035e-26,2.3619148688355463e-16,1.6962330683335532e-17,
  -2.3070983719512714e-17,1.327116898508218e-18,1.4359875507696394e-19,-4.923278524113017e-21,
  -9.571755393579336e-22,-1.2590817310979459e-23,4.194788081995405e-24,2.5956877886769866e-25,
  -1.3386667894725124e-27,-2.9034911293673735e-27,0.2320141254870178,-0.07520873853313953,
  0.00397832384136699,-2.5410218376698207e-05,-3.3252316957742697e-06,-3.5864203184167566e-08,
  3.981048965641669e-09,1.7207321257222388e-10,-1.846487846069553e-12,-3.914468476911388e-13,
  -1.0390183398436544e-14,3.795851848304306e-16,0.022454647947744592,-0.004938884491137929,
  4.7082378666297375e-05,8.22104275034787e-06,1.079838003031725e-07,-1.510638298335758e-08,
  -7.675319051365743e-10,8.039151544330322e-12,2.1281052150754357e-12,6.057833074363598e-14,
  -2.928473939363491e-15,-2.7109324015279397e-16,-8.499412832884148e-05,7.938155124374057e-05,
  -4.74262366371568e-06,-2.254556752646089e-07,9.521874827800055e-09,9.92639480698317e-10,
  5.207084694590193e-12,-2.845527452283633e-12,-1.2868569813218967e-13,3.171089336764435e-15,
  5.054276951199891e-16,1.1888706130951592e-17,-1.230288279117808e-07,-1.5382089412545926e-06,
  1.9458725543514877e-07,2.582819982872212e-09,-7.459697317783313e-10,-3.0080713414587465e-11,
  1.8421655180671455e-12,1.7901476718787713e-13,4.907525615037592e-16,-6.006802499299723e-16,
  -2.6917944014303084e-17,8.369862427676724e-19,4.421182635098042e-08,2.77890420809731e-08,
  -6.890371210454918e-09,1.2010578607857362e-10,3.4346250815275354e-11,1.5791033627892667e-13,
  -1.4864979392391504e-13,-5.847537438953293e-15,3.852060594927667e-16,3.851593546395306e-17,
  1.3351566918434794e-19,-1.371862728409027e-19,-2.177659907248937e-09,-3.3142430037491574e-10,
  2.2592492019765047e-10,-1.153829332090681e-11,-1.2355643312130088e-12,4.4374562866888346e-14,
  7.39284523221334e-15,2.1156989467056556e-17,-3.306185410679252e-17,-1.366936456981535e-18,
  8.436497933831798e-20,9.121521492182916e-21,8.745006765150571e-11,-5.703663637905157e-12,
  -6.940205810911162e-12,6.422393605120613e-13,3.526534459170589e-14,-3.638802393880878e-15,
  -2.7344065424638495e-16,1.1667674371504739e-17,1.7611208998210275e-18,7.99313951868394e-21,
  -7.813784127150591e-21,-3.526647261840812e-22,-3.2811763583720116e-12,6.968838713192567e-13,
  1.9724799077684716e-13,-2.9768952313018084e-14,-6.465326992346184e-16,2.0056108990293367e-16,
  7.03964951212489e-18,-9.937102602567849e-19,-6.810481617155732e-20,2.8680177455324162e-21,
  4.447357196886697e-22,3.5680947083214535e-24,1.1962785266363985e-13,-3.936599982388593e-14,
  -4.955680078175876e-15,1.2487943823876719e-15,-7.863544019757886e-18,-9.17882060232562e-18,
  -3.506139655886934e-20,5.677460635200662e-20,1.7009517196938814e-21,-2.6445520286431085e-22,
  -1.8181719648389135e-23,6.799340484394814e-25,-4.30440835668585e-15,1.8456786769146213e-15,
  9.423621250255277e-17,-4.8910187633965153e-17,1.646342434671241e-18,3.68877913496012e-19,
  -1.0500816495367585e-20,-2.633908042178464e-21,6.36869981118399e-24,1.586036513588128e-23,
  4.7072717021401075e-25,-7.014766159431946e-26,1.5396250958731785e-16,-7.965832758693257e-17,
  -1.6156855047844044e-19,1.81121612790228e-18,-1.143435398918137e-19,-1.3146665504732405e-20,
  9.121636776126764e-22,1.0350041562265255e-22,-4.1421679396732895e-24,-7.566188048501355e-25,
  3.3063521133723394e-27,4.9223153894722994e-27,-5.494758582311194e-18,3.2848353501211643e-18,
  -1.1657851365462483e-19,-6.358470845223487e-20,6.213507820121028e-21,4.0405208548438156e-22,
  -5.443227091329148e-23,-3.3702359975881326e-24,3.327826175285959e-25,2.8679256776731326e-26,
  2.6931432657831346e-28,-2.0924160473632024e-28,0.1118088080254067,-0.045520082362636,
  0.003351108576720738,-7.782816766752398e-05,-2.793000579468089e-06,9.62133440355865e-08,
  5.5928577389467455e-09,-1.3640817381126253e-10,-1.6131107345239716e-11,-1.8505218539098083e-13,
  1.5955506330211817e-14,-7.627506334568964e-16,-1.9111802646398803e-16,0.013268035551776589,
  -0.004166713314262402,0.00014346299676550454,6.759134663176635e-06,-3.166062126133613e-07,
  -2.2496623261121373e-08,4.461881877905249e-10,6.652085976447122e-11,-3.0961316175788943e-13,
  -2.313601381884977e-13,-7.487124153366746e-15,2.0582239234497724e-16,1.1012288723674218e-18,
  3.0014332660662022e-05,3.460217103742033e-05,-5.945187054963069e-06,5.982395619308436e-08,
  2.273942968599909e-08,-5.58616964478837e-11,-8.733975806935111e-11,-1.5034665287660799e-12,
  2.707094364538165e-13,1.0398913433594396e-14,-7.608809046076041e-16,-5.981156519011545e-17,
  5.00983519346444e-19,-1.703510135154044e-06,-8.300500655307133e-08,1.459741465002905e-07,
  -1.0328866758748327e-08,-5.906754806702787e-10,5.236798859341799e-11,3.266120376403526e-12,
  -1.872845479358491e-13,-1.7399186202327905e-14,4.2253119467439807e-16,7.933679866372497e-17,
  2.004694547228904e-19,-2.975294862152181e-19,5.511216775135874e-08,-1.337001708683907e-08,
  -2.735944977849758e-09,4.844968709665105e-10,2.2017473966478113e-13,-3.010520877655049e-12,
  -4.998237087441098e-15,1.5906728316705683e-14,2.4612194876521194e-16,-7.173618774985353e-17,
  -2.5356433775598182e-18,2.639701785025221e-19,1.688586138355153e-20,-1.6300280769534174e-09,
  7.074703078243071e-10,2.4188628822629958e-11,-1.673517885865745e-11,8.017535889190504e-13,
  1.0314117996548098e-13,-6.0913623002894055e-15,-6.399431811443916e-16,2.9154376137643346e-17,
  3.828959315491308e-18,-8.778850997380116e-20,-2.05515943133809e-20,-2.4116068276002057e-25,
  4.716972109497094e-11,-2.7697964779120908e-11,1.1340135022834231e-12,4.72891204743833e-13,
  -5.1452365151608515e-14,-2.041927277580657e-15,4.205451530895701e-16,1.1650094323355197e-17,
  -2.6396541382841054e-18,-9.110433904710151e-20,1.3883240921757887e-20,7.0620889576384415e-22,
  -6.015760944525928e-23,-1.3612213799108294e-12,9.771579430243811e-13,-9.165571967303187e-14,
  -1.0477934576634012e-14,2.303131654998758e-15,-1.944750457691778e-17,-1.864116424919705e-17,
  3.989561821356219e-19,1.2848866491080655e-19,-2.2674304682644864e-21,-8.135602452609895e-22,
  4.176327818062994e-24,4.670771068101784e-24,3.9432271461335946e-14,-3.2807000616625255e-14,
  4.508175378783818e-15,1.201873995354873e-16,-8.558422465805459e-17,4.3885226814969455e-18,
  6.153818061388745e-19,-4.9678134898884494e-20,-4.123227469674586e-21,3.6542616063166464e-22,
  2.8583234497998923e-23,-2.1256619694482207e-24,-1.9751367105484338e-25,-1.1493474373977728e-15,
  1.0718757371106064e-15,-1.8855713669454794e-16,4.632089862894847e-18,2.7500742730268694e-18,
  -2.773743214537439e-19,-1.3781817025712596e-20,2.8943788438829827e-21,5.991593601492318e-23,
  -2.262014406002757e-23,-3.709522263296614e-25,1.5291166680661964e-25,3.7261695908750764e-27,
  3.373018503776181e-17,-3.4458364920282914e-17,7.270476337918874e-18,-4.565020945605499e-19,
  -7.517685096568748e-20,1.3149184973348543e-20,1.9187284034856335e-23,-1.2653050562682623e-22,
  3.0805304347032694e-24,9.81907082006507e-25,-3.091709848220458e-26,-7.39160468838294e-27,
  -1.47193262950645e-28,-9.966330393410763e-19,1.0966866297366986e-18,-2.6702228949448504e-19,
  2.5287677352382122e-20,1.5549134779489893e-21,-5.331883217668554e-22,1.9971030046598155e-23,
  4.47089107249466e-24,-3.343708642855064e-25,-3.1393345628780287e-26,3.614207356959759e-27,
  6.938275173783652e-29,-3.594513046475938e-28,0.05304960716789262,-0.015639395020221263,
  0.0008501327449889436,-2.027177142026929e-05,-8.195848715012443e-08,9.939065223265442e-09,
  -9.728538086847528e-11,-1.556105847731596e-11,-5.400712374210209e-13,-3.331913264485173e-14,
  -3.0170477050659515e-15,-2.3833938547062846e-16,-1.803192324056483e-17,0.007367999483515561,
  -0.0018205544333378296,6.291818602727558e-05,2.0230880693935319e-07,-6.433638161966963e-08,
  -2.753342098676686e-10,4.414127009536478e-11,-1.2535028046058094e-12,-1.6018963654876543e-13,
  -7.315312971850214e-15,-4.717487600251214e-16,-4.0860238868191566e-17,-3.2607052754101655e-18,
  6.084887667503917e-05,6.003658096869257e-07,-1.437762714346893e-06,5.821373526157056e-08,
  1.0985310281862896e-09,-1.0442539266919118e-10,-1.6583037526605843e-12,1.0946765148922667e-13,
  -3.433741432378988e-16,-3.292715672965868e-16,-1.409874890837064e-17,-6.671542579613609e-19,
  -6.401657897415991e-20,-1.3654070570692451e-06,2.993059746785035e-07,1.0936976734708981e-08,
  -2.323558650590351e-09,5.138077810192507e-11,3.8664811465795005e-12,-1.315629417089214e-13,
  -5.8838348227277516e-15,2.3498333359843277e-16,9.316897143725041e-18,-3.2180751176545234e-19,
  -1.185644229578769e-20,6.027846534410396e-22,2.8451581690815853e-08,-1.0715237493270206e-08,
  3.730772048073248e-10,4.817357093129148e-11,-3.828819988662086e-12,-2.0174456448099626e-14,
  9.081698293049971e-15,-5.528647462195698e-17,-1.715228243842829e-17,1.7222653584899392e-19,
  2.9434616719405527e-20,-3.1030538635541043e-22,-4.749470794080522e-23,-5.898922788008193e-10,
  3.009410215779182e-10,-2.3815446576214047e-11,-3.023442360968127e-13,1.361453667710396e-13,
  -4.4085055655387466e-15,-2.593023297539533e-16,1.5112547193530353e-17,4.006333533867713e-19,
  -3.478272493005502e-20,-5.970688838891607e-22,6.751285462248033e-23,9.348288153542546e-25,
  1.2333693201223145e-11,-7.765652233796933e-12,9.027469822252454e-13,-2.6961974360692305e-14,
  -3.1891363503501622e-15,2.7064249233823854e-16,8.1623379999353845e-19,-7.708389183737029e-19,
  1.1325862563140693e-20,1.6627961405687197e-21,-4.0581913554704703e-23,-3.1965080337451484e-24,
  9.672844781858182e-26,-2.6082749562818323e-13,1.925301824371177e-13,-2.8881996152489154e-14,
  1.7369189149584077e-15,3.46239398282007e-17,-1.0150257973698312e-17,3.181733372765551e-19,
  2.164708546607156e-20,-1.4035850129838744e-21,-3.1272290691942787e-23,3.840681249091401e-24,
  3.15007014036179e-26,-8.703382810578811e-27,5.579817148058679e-15,-4.670669484528762e-15,
  8.485249410374844e-16,-7.294020955925623e-17,1.3460006649878913e-18,2.7790808533639335e-19,
  -2.0218625069331183e-20,-1.6743706635422115e-22,6.769073844185342e-23,-1.0932471881776462e-24,
  -1.6002515540714316e-25,4.719885290047255e-27,5.110703817248617e-28,-1.2066774167247353e-16,
  1.1187545801613373e-16,-2.368690313481487e-17,2.5947682746847427e-18,-1.1582747086134013e-19,
  -4.954624760759202e-21,8.282675903229917e-22,-2.0324155933273084e-23,-2.056514181616109e-24,
  1.2215470513262769e-25,3.213939110094125e-27,-3.3519408638135763e-28,4.141171650281379e-29,
  2.6354982945667377e-18,-2.6591096470660867e-18,6.392737531178536e-19,-8.421939240919671e-20,
  5.575407025342501e-21,-1.4484200676492012e-23,-2.613625816711394e-23,1.5051185700074226e-24,
  3.016195380924124e-26,-6.238335328649491e-27,3.285856928886771e-28,4.544342758044935e-30,
  9.089081111363316e-29,0.030451286589071046,-0.007459209990594383,0.0003221996986782676,
  -7.294600543429646e-06,1.0547692800917227e-08,3.2601546526558907e-10,-1.191773057738369e-10,
  -7.47100238165962e-12,-4.983424919087587e-13,-3.7864292640527495e-14,-2.885816891756127e-15,
  -2.2074627769031712e-16,-1.7073569323261178e-17,0.004591104964601411,-0.0009886768306886496,
  3.049050239528974e-05,-2.4518938882982885e-07,-1.6545167755857044e-08,-4.452520282184539e-11,
  -1.1699945277669997e-11,-1.3708528048169653e-12,-9.286263041584405e-14,-6.663165397862885e-15,
  -5.091786595731165e-16,-3.910759615034576e-17,-3.021062978744359e-18,5.540267732888093e-05,
  -5.09659295200376e-06,-4.0679869877889545e-07,2.159091671008212e-08,-2.1619844165651535e-10,
  -2.1699034332337148e-11,-1.1882120659309154e-13,-1.660616879033106e-14,-2.1596389713390605e-15,
  -1.488715869438981e-16,-1.0642584172301271e-17,-8.23194731755911e-19,-6.388279371353008e-20,
  -8.36583701543415e-07,2.1719767935357308e-07,-4.1379419392404905e-09,-4.641995404146756e-10,
  2.2657584579920036e-11,6.5850271480119e-14,-2.246459483387414e-14,2.4597377991716925e-16,
  2.189997914693047e-17,1.897016903623241e-20,1.1365373250348615e-20,2.1368038780596896e-21,
  1.545530046337463e-22,1.2792399696595693e-08,-5.0523131055822714e-09,3.0972054948264507e-10,
  -5.803972772385111e-14,-7.150715514978987e-13,2.1804239533501155e-14,4.4175909088668564e-16,
  -3.1043206577594265e-17,-6.901002016537715e-20,3.04302523638643e-20,-1.9500706979230528e-22,
  -2.5684201975518786e-23,2.3877519202734306e-25,-1.996850977916703e-10,1.0302359474454186e-10,
  -9.907262485321329e-12,3.323218172388509e-13,9.666545763090595e-15,-1.0415945138252422e-15,
  1.4797544300120873e-17,1.0627239293887645e-18,-3.553025310548073e-20,-6.938982051757159e-22,
  4.460697622764562e-23,2.3637055408632845e-25,-4.493316823020488e-26,3.1779472468086825e-12,
  -1.992383309765872e-12,2.554064499682327e-13,-1.5016687855587537e-14,1.8148135746542839e-16,
  2.6349040012398027e-17,-1.2935870145331702e-18,-4.7386009728834374e-21,1.8794944020207497e-21,
  -2.754888449937108e-23,-1.7913628628466753e-24,5.3202760810942e-26,1.3153786513970788e-27,
  -5.144344970067624e-14,3.752353376221624e-14,-5.9494106775523e-15,4.842303656943203e-16,
  -1.7278304164001322e-17,-2.746717008699955e-19,4.862880042092774e-20,-1.19763534095895e-21,
  -4.251229475362029e-23,2.6438679040928082e-24,5.6905542928881584e-27,-3.448039898061489e-27,
  1.0918844455215519e-28,8.45141997424522e-16,-6.963552418190559e-16,1.3067601526286336e-16,
  -1.341721228244232e-17,7.355984630760774e-19,-1.1133535274840751e-20,-1.1447193372855558e-21,
  6.968099306523797e-23,-3.4943309989299554e-25,-9.922656933415267e-26,2.6831195040556124e-27,
  -9.770463180033378e-29,-5.636805680788848e-29,-1.4064311447528294e-17,1.281139820644274e-17,
  -2.763092524496404e-18,3.4021401324598536e-19,-2.4536884432804467e-20,8.550124247423744e-22,
  1.1012347069487868e-23,-2.4044335238033248e-24,7.42164428575274e-26,1.6025320119448179e-27,
  -2.5393426124500867e-28,4.126801615421884e-29,8.436868857320705e-29,0.01893929072252577,
  -0.004216923151490462,0.0001473908938667619,-3.3959238318668807e-06,-1.0025642974734692e-08,
  -1.9455928326349227e-09,-1.814235997140665e-10,-1.3936840878530472e-11,-1.13280340845922e-12,
  -9.4301293001141e-14,-7.957776992097958e-15,-6.799352664153033e-16,-5.871144274322104e-17,
  -5.114945657782481e-18,0.0030082131871283146,-0.000608223486882793,1.599108746112735e-05,
  -2.3729285519352292e-07,-8.505313122135445e-09,-3.233741524862024e-10,-3.06404199673995e-11,
  -2.492744308806399e-12,-2.0076782823192263e-13,-1.6668278406208298e-14,-1.4064320976522262e-15,
  -1.201126993595543e-16,-1.0367100378482148e-17,-9.028904871332114e-19,4.442507381998831e-05,
  -5.625168457317024e-06,-1.2212200101320092e-07,7.242073684817569e-09,-2.502767215032272e-10,
  -1.115869226427468e-11,-5.730279374039821e-13,-5.1996766569550134e-14,-4.286376172095653e-15,
  -3.516832227896599e-16,-2.959767299949994e-17,-2.5253187268890976e-18,-2.177016214648291e-19,
  -1.8941538525675055e-20,-4.840151428746264e-07,1.3556106662522247e-07,-4.467478066940294e-09,
  -7.081135944823818e-11,7.334388132998555e-12,-8.113520738971715e-14,-1.5541492332932428e-15,
  2.026138896966734e-16,1.0130863861114714e-17,7.657878602985763e-19,7.022746678856718e-20,
  6.096903008691475e-21,5.300611910551551e-22,4.6568826496798446e-23,5.588485160206205e-09,
  -2.2970385253042996e-09,1.6024263545980453e-10,-3.402160258462307e-12,-1.0559895041613761e-13,
  6.586498627399862e-15,-5.536733067613534e-17,-3.640628492115624e-18,8.118722481475466e-20,
  6.465708163579922e-22,-1.107992049177117e-22,-5.3808946763199334e-24,-4.929988253610827e-25,
  -5.0397554849868447e-26,-6.693167770676308e-11,3.548150950744403e-11,-3.645995462813194e-12,
  1.6702210686412429e-13,-1.7564929982706843e-15,-1.5231342681208255e-16,6.0230068153335985e-18,
  -5.110686911474855e-21,-4.470038470927694e-21,6.603762408105056e-23,1.6254483373348209e-24,
  -8.47427683871941e-26,-1.95961328364916e-27,-1.9741959809925862e-28,8.234888779212745e-13,
  -5.271246200092158e-13,7.060236115786821e-14,-4.793533263167264e-15,1.5144205567689882e-16,
  4.006313185479958e-19,-1.957165893229001e-19,5.0430235437491766e-21,5.62084575592789e-23,
  -5.007430337301247e-24,4.2408589020092064e-26,2.913358797761099e-27,-2.0673996097586904e-29,
  -5.643137149743929e-29,-1.0348779305950501e-14,7.678126268294214e-15,-1.2581994618722595e-15,
  1.1189111664705955e-16,-5.498442923259377e-18,1.1033856046629805e-19,2.8716522814274338e-21,
  -2.244564876147538e-22,3.381829966103729e-24,1.212117774717078e-25,-5.231604162954309e-27,
  9.953635932033556e-29,-5.267824700505507e-29,-2.7207464600633918e-30,1.3233129611168733e-16,
  -1.1062602986505579e-16,2.1322488390554212e-17,-2.3310379845785775e-18,1.525457348735264e-19,
  -5.511763856691331e-21,4.376886415945962e-23,5.361635616805555e-24,-2.276480342242997e-25,
  9.770463180067321e-28,1.8225671701245624e-28,-8.455208521181215e-29,4.6973380673242865e-29,
  5.636805680789098e-30,-1.717014003644322e-18,1.5839566167952703e-18,-3.494810848351968e-19,
  4.516158442862404e-20,-3.6633436803686394e-21,1.8373599209549202e-22,-4.623643500939114e-24,
  -4.3997790485166494e-26,7.445406735827558e-27,-1.8990637003583127e-28,9.566749235634025e-30,
  -8.932899670505836e-29,1.2537691842969507e-28,4.35651493507843e-30,0.012110653629328732,
  -0.0026815133051271197,7.19837045614153e-05,-2.2533757597190566e-06,-5.9505590550247576e-08,
  -6.435764061552703e-09,-6.284073968300851e-10,-6.248844967760251e-11,-6.3976703080638796e-12,
  -6.683286095762273e-13,-7.09463599209565e-14,-7.631093394999785e-15,-8.2984408800962105e-16,
  -9.107892740416547e-17,-1.0075553628663624e-17,0.0019959377509266947,-0.0004112504037846446,
  8.307089112843156e-06,-2.5161980010143494e-07,-1.3252036872687506e-08,-1.1220996179952536e-09,
  -1.1090177832508336e-10,-1.1049980674772416e-11,-1.1298545183428925e-12,-1.1796954071372851e-13,
  -1.2518625684050841e-14,-1.3461609276126353e-15,-1.4635961817921108e-16,-1.6061271114480487e-17,
  -1.7765815753365e-18,3.358856854135346e-05,-5.144321620037237e-06,-4.7268444810562276e-08,
  5.412432852791107e-10,-3.396435700074916e-10,-2.464486832825869e-11,-2.3155402056937832e-12,
  -2.3268701330785565e-13,-2.3743755242565736e-14,-2.4746969052484103e-15,-2.6233712577248003e-16,
  -2.818847366460575e-17,-3.0630701448261234e-18,-3.360042523576307e-19,-3.715607577161846e-20,
  -2.667476750421392e-07,8.308423496657135e-08,-3.141935732201078e-09,1.4009024983517625e-11,
  2.739992091638614e-12,3.649106442459727e-15,5.178966435846814e-15,5.713218005066409e-16,
  5.73271147746894e-17,6.078470834056815e-18,6.515729587742048e-19,7.048792406316216e-20,
  7.69510320833733e-21,8.466898621815857e-22,9.380336742158513e-23,2.3228992188665117e-09,
  -1.044351860637293e-09,7.867587607650786e-11,-2.2636128858658735e-12,-8.274571149805657e-16,
  1.6659974389826474e-15,-3.6916771177215126e-17,-6.619275097597046e-19,-3.767365666855539e-20,
  -6.820299381597158e-21,-7.9285030987199375e-22,-9.12423653167159e-23,-1.0514202125321226e-23,
  -1.2064362031130062e-24,-1.3823775834821957e-25,-2.1273791951231912e-11,1.2238938936721059e-11,
  -1.347461817854423e-12,6.934977012421124e-14,-1.515137445395213e-15,-1.1889813872362358e-17,
  1.351227595226321e-18,-2.461055548360022e-20,-4.725838148942098e-22,8.049331977195023e-25,
  -1.2526432265619156e-24,-1.0133599419792611e-25,-7.474270238003618e-27,-5.244428251785758e-28,
  -3.39501006692497e-29,2.0159389536225976e-13,-1.3925398459300684e-13,1.9949571999746953e-14,
  -1.468934579783626e-15,5.748674024051063e-17,-8.849201225731318e-19,-1.917005678039407e-20,
  1.1414223378300868e-21,-1.253616357062604e-23,-2.6984722111604606e-25,2.1287699934242426e-26,
  8.939489737161858e-28,6.160673104660034e-29,1.782671739654073e-29,3.176191176123434e-32,
  -1.9598175944881784e-15,1.56143387973734e-15,-2.735055943947804e-16,2.6094954707835824e-17,
  -1.4500239324180114e-18,4.442844871646739e-20,-3.8528659412929867e-22,-2.3538944603433163e-23,
  9.004527167682455e-25,-6.224292914231733e-27,-3.351918675429251e-28,-4.579645790216249e-29,
  5.196635294323807e-29,-5.017299368374484e-30,4.1503794944547917e-29,1.9442950682740612e-17,
  -1.737405925465166e-17,3.5775402938333324e-18,-4.1792041720821437e-19,2.9971851141857176e-20,
  -1.3255838384517505e-21,3.146498376065773e-23,-4.7367957048873424e-27,-2.4749334808890407e-26,
  6.745377464918128e-28,-7.515740907463642e-29,1.0334143748382397e-29,-1.9728819882730604e-29,
  -5.448912158095645e-29,-3.757870453859238e-29,-1.9612860193750367e-19,1.9254760744644855e-19,
  -4.5352367936124715e-20,6.251779607992586e-21,-5.482444561504757e-22,3.140546679246652e-23,
  -1.1291393063931975e-24,1.951396424550792e-26,2.427288008819761e-28,-2.353468114206073e-29,
  -5.2396391314716696e-30,5.2269018911371755e-30,2.1133454428707298e-29,-8.12684506859804e-30,
  -1.3865753921731885e-29,2.737919366035653,-0.2392945283984181,0.0014181312829198661,
  2.0905196564976922e-05,2.8835135974014477e-07,3.171123034170921e-09,1.2080497680126983e-11,
  -6.959213933222545e-13,-2.873981155858102e-14,-7.485984149908424e-16,0.06363222312770475,
  -0.0015348260004789788,-3.393597893729831e-05,-6.241261421048929e-07,-8.582122849459347e-09,
  -3.938473892939244e-11,2.6289883946249416e-12,1.2417739792202152e-13,3.6394069474373675e-15,
  8.264979375045236e-17,-0.0009265374450394925,3.314321309865519e-05,7.828954387180771e-07,
  1.4377438187407308e-08,1.6026239045442761e-10,-1.529547832118832e-12,-1.5891025543236942e-13,
  -5.8842431810263e-15,-1.5761992612450613e-16,-3.251031265087263e-18,2.2638194704408777e-05,
  -9.564218354815738e-07,-2.2958060640741678e-08,-4.081030881822273e-10,-3.3496910937981817e-12,
  1.144949389821669e-13,7.232872493453573e-15,2.4620472376491457e-16,6.213032235653159e-18,
  1.1501536718794452e-19,-6.289502412051845e-07,3.0037935783534206e-08,7.267584946854961e-10,
  1.2413803444063193e-11,6.19077258653448e-14,-5.79347644680556e-15,-3.0623246335160734e-16,
  -9.885688331640454e-18,-2.358982679716616e-19,-3.8124626153222484e-21,1.8741318751233462e-08,
  -9.875648508737004e-10,-2.3964531544839783e-11,-3.911469272131516e-13,-5.5693164644891735e-16,
  2.617303477375751e-16,1.2538375547629759e-17,3.8824604661698265e-19,8.74264549935782e-21,
  1.177130884867773e-22,-5.838703703719127e-10,3.3417193684722295e-11,8.107671582785425e-13,
  1.2581988386028805e-14,-3.2110080657422495e-17,-1.1223241161572265e-17,-5.035540508493334e-19,
  -1.5031654942509904e-20,-3.1778191022688996e-22,-3.2072887765118228e-24,1.8760273930887714e-11,
  -1.1533845856643347e-12,-2.7918438266571836e-14,-4.0988848900846314e-16,2.881246473760677e-18,
  4.673380792878039e-19,1.9970389440839687e-20,5.75955992672862e-22,1.130150892914972e-23,
  2.904356923309193e-26,-6.16618571612066e-13,4.038817188281323e-14,9.738251949249205e-16,
  1.3455012781845838e-17,-1.631107958678856e-19,-1.9101737245896022e-20,-7.850998268055878e-22,
  -2.1917584012870584e-23,-4.199194759960497e-25,-1.1063170616161676e-26,2.0622886627531267e-14,
  -1.429933099560588e-15,-3.4302822297627664e-17,-4.434292837000364e-19,7.974215395147804e-21,
  7.708704650580366e-22,3.065073574414092e-23,8.097691438661442e-25,6.928969126433761e-26,
  -9.034543603715341e-26,-6.992988264372907e-16,5.1067052348507544e-17,1.217658544109942e-18,
  1.4629205040217656e-20,-3.6295579025383244e-22,-3.075213146442207e-23,-1.1354191471152191e-24,
  -5.637069252137668e-26,7.402077042975453e-27,9.095677758969871e-26,2.271528337062974,
  -0.22686271641049321,0.0016987959504224427,2.603309140401073e-05,3.5243488257021725e-07,
  3.093626482326799e-09,-2.5304010844173543e-11,-2.18748684341391e-12,-6.951824476041663e-14,
  -1.5971851172313228e-15,0.06026569752783223,-0.0018386368504577587,-4.2260380276667854e-05,
  -7.628551787050493e-07,-8.37600262772494e-09,8.177040914145174e-11,8.269465640462815e-12,
  3.0040738958019984e-13,7.764801773540903e-15,1.4710507379800797e-16,-0.0008534133201970725,
  4.013608887383182e-05,9.689481411571885e-07,1.6421914911588434e-08,7.473960873565911e-11,
  -8.010367041722533e-12,-4.141749000839525e-13,-1.310973827446143e-14,-3.008017900397524e-16,
  -4.287479470314407e-18,2.0525696982660115e-05,-1.1603376206279388e-06,-2.806326134858324e-08,
  -4.3114823035230887e-10,1.367536309480077e-12,3.972769548821047e-13,1.7562156021507074e-14,
  5.1408618816696625e-16,1.0365664270739858e-17,8.037880848006901e-20,-5.625844551554918e-07,
  3.645276960112019e-08,8.762524873694869e-10,1.1966997553845628e-11,-1.5480891261439364e-13,
  -1.743896532957127e-14,-7.07896311788305e-16,-1.9341894397329054e-17,-3.3076892154728095e-19,
  6.5410792246753e-22,1.6559844094426357e-08,-1.1976827690926853e-09,-2.847449012825444e-11,
  -3.375220140213649e-13,8.745027763826964e-15,7.279127289352246e-16,2.7800784210609803e-17,
  7.085163143031298e-19,9.618813718118387e-21,-1.7839926635454351e-22,-5.100923131673879e-10,
  4.0476408969271494e-11,9.486911038322869e-13,9.451122344307495e-15,-4.177582261910338e-16,
  -2.956957976121602e-17,-1.0740840950765323e-18,-2.539853514886135e-20,-2.3861381259123584e-22,
  1.2906520184563925e-23,1.6215727930387245e-11,-1.3947132334766065e-12,-3.21509191362553e-14,
  -2.5674298418999063e-16,1.8540818896168125e-17,1.181050798091173e-18,4.101771229373442e-20,
  8.921007860639133e-22,3.781862120253761e-24,-6.420434679855788e-25,-5.275956737779111e-13,
  4.874342526509726e-14,1.1030735456346332e-15,6.531860767251086e-18,-7.902931806844757e-19,
  -4.6631834140912114e-20,-1.5523619745185764e-21,-3.0641615554841175e-23,1.779727446948011e-26,
  -2.6455407995169224e-26,1.7474240418832755e-14,-1.721997401358852e-15,-3.8196696127654096e-17,
  -1.4384726623757353e-19,3.2849992628704766e-20,1.8257525666866818e-21,5.831687089793978e-23,
  1.0468948311628152e-24,1.5726237924422493e-26,1.0423536976968365e-26,-5.869754415177202e-16,
  6.135326598459022e-17,1.3321155928470921e-18,2.0157201927397844e-21,-1.3425569962170995e-21,
  -7.103493923197393e-23,-2.1559420098151254e-24,-7.273958747117773e-26,-9.425559247998945e-26,
  3.0021767727448313e-26,1.8324530861344115,-0.21192253455373083,0.0020468922769134317,
  3.210792826789913e-05,4.0171989186564914e-07,1.4389071552166055e-09,-1.2792953481782938e-10,
  -5.556053816987481e-12,-1.4798375944983803e-13,-2.7434623985030605e-15,0.05621988016451828,
  -0.002215404386189573,-5.212066653413812e-05,-8.69573750060461e-07,-3.907605613322098e-09,
  4.144347720655971e-10,2.100750944458549e-11,6.39445732133143e-13,1.3334112899843123e-14,
  1.2401882245544147e-16,-0.000764761839448722,4.867986544683009e-05,1.165758003463837e-06,
  1.564996277492237e-08,-2.2076667634795332e-10,-2.3566778734038202e-11,-9.348507014311543e-13,
  -2.4455941938766344e-14,-3.605888286511118e-16,4.2789528608542924e-18,1.79649028482213e-05,
  -1.404387108350077e-06,-3.2754337444072224e-08,-3.172182009795049e-10,1.4891831152081114e-11,
  1.0295761100246502e-12,3.6584702910335784e-14,8.204701861504896e-16,5.096538446918968e-18,
  -5.673142626777145e-19,-4.822657313185994e-07,4.396159582917909e-08,9.899430104295708e-10,
  5.5725585533159645e-12,-7.229772897558708e-13,-4.196879400918903e-14,-1.3657867469079868e-15,
  -2.5147906366435845e-17,1.780909205785916e-19,3.7226066344253827e-20,1.3926435219156548e-08,
  -1.4379235732743501e-09,-3.106773729715119e-11,-3.765351564747407e-14,3.171218117592435e-14,
  1.6549626692400093e-15,4.9486269079214346e-17,6.838218951009645e-19,-2.1647979742946573e-20,
  -1.9903709518800665e-21,-4.2130714609766874e-10,4.835068116597145e-11,9.972671989947611e-13,
  -3.613392750190254e-15,-1.3259651622160967e-15,-6.397180612958327e-17,-1.7501250143371057e-18,
  -1.461883917810293e-20,1.3966455229885615e-21,9.614663260607739e-23,1.3164325422814125e-11,
  -1.6570167901369023e-12,-3.247632769289396e-14,2.906504951530933e-16,5.3942599367735794e-17,
  2.439098291569329e-18,6.047711876513239e-20,9.794953915397264e-23,-7.47455040001339e-23,
  -4.330840267343492e-24,-4.212435992832585e-13,5.758119312410047e-14,1.0675132631532933e-15,
  -1.586371456009043e-17,-2.1561729465148695e-18,-9.203729224965905e-20,-2.0380452657238508e-21,
  1.426571800583165e-23,3.6785042298737704e-24,1.8254231516666814e-25,1.372767958929422e-14,
  -2.0222288936838368e-15,-3.529505583998669e-17,7.5798033929337e-19,8.513840217561876e-20,
  3.443834397226036e-21,6.660584005548124e-23,-1.2703336331456238e-24,-1.3023015236699404e-25,
  2.510823845334363e-26,-4.53876695986301e-16,7.161414330590428e-17,1.1706936096656392e-18,
  -3.389152049731011e-20,-3.3316763027592918e-21,-1.279083970438455e-22,-2.0871736573510057e-24,
  6.322654094688012e-26,-1.2067615056454782e-26,2.032687732996957e-26,1.4262809600845427,
  -0.19389615055458603,0.002470991490128269,3.853511900625776e-05,3.840260208043441e-07,
  -4.128327615206522e-09,-3.6525709852044897e-10,-1.192645834272781e-11,-2.460673846380501e-13,
  -1.9051641571721072e-15,0.05133885995240378,-0.002674330337885556,-6.254962007632527e-05,
  -8.31403515341102e-07,1.1132419408007879e-08,1.1836480186996498e-09,4.508725421848219e-11,
  1.0626619878090363e-12,9.221244055191731e-15,-5.595417323685182e-16,-0.0006575530897603412,
  5.865209854990517e-05,1.3121762720179546e-06,6.875445977264224e-09,-9.773295064606034e-10,
  -5.5171210447513225e-11,-1.713435898179023e-12,-2.6689935030862933e-14,5.326655994208542e-16,
  5.806029611921981e-17,1.4886149471626932e-05,-1.6756838716178177e-06,-3.4275908435666624e-08,
  1.4127229090437058e-10,4.609485737306953e-11,2.1701345698407214e-12,5.611170904758092e-14,
  2.5544155957554607e-16,-5.751782486782944e-17,-3.485183000427413e-18,-3.864000447385837e-07,
  5.1875540881556786e-08,9.533596161698602e-10,-1.469708878810071e-11,-1.9363480063106703e-12,
  -8.068133390404864e-14,-1.6571658356334547e-15,2.1583526950394614e-17,3.53096462784078e-18,
  1.701266315928733e-19,1.0808640524878189e-08,-1.6766894965601012e-09,-2.7161895902621047e-11,
  8.030500196199063e-13,7.745214747222448e-14,2.89945275230353e-15,4.230453258926004e-17,
  -2.0167997074758744e-18,-1.7973185072226365e-19,-7.409166008842208e-21,-3.17093077690561e-10,
  5.568250402206386e-11,7.769504853081125e-13,-3.734249109194462e-14,-3.0146551156959513e-15,
  -1.014489276251979e-16,-7.7060571850180735e-19,1.2065105518007056e-19,8.294547328879492e-21,
  2.980573120522915e-22,9.614636115921237e-12,-1.884006962918517e-12,-2.195889264903452e-14,
  1.6166093106407694e-15,1.1527945367290339e-16,3.461096498090076e-18,-3.3769746715910734e-21,
  -6.1611699907621934e-21,-3.595961968024173e-22,-1.1215863687370874e-23,-2.9865983110972823e-13,
  6.461817038335913e-14,6.019560403922437e-16,-6.727498609666427e-17,-4.3523719457548094e-18,
  -1.148988107513824e-19,1.3738663747603476e-21,2.893557844434554e-22,1.4892230167898893e-23,
  4.040462311989491e-25,9.449747295630712e-15,-2.2393662648447378e-15,-1.5538876001094917e-17,
  2.7313376479674316e-18,1.6269771118249394e-19,3.6903889617595085e-21,-9.894725832294611e-23,
  -1.2905328159068257e-23,-5.677044523548511e-25,-2.0071428027535864e-26,-3.0334615509065944e-16,
  7.82405065356899e-17,3.543149187979203e-19,-1.0904792368416586e-19,-6.0318451416685164e-21,
  -1.1338699522823152e-22,5.499782131473716e-24,5.641225708792263e-25,8.092132330160973e-27,
  2.655872098553094e-26,1.0597881895339645,-0.1721840776864985,0.0029656621368758626,
  4.3412754097582146e-05,1.8203707099930223e-07,-1.7809881595013465e-08,-8.100629471723045e-10,
  -1.9377162827585312e-11,-1.4468198085002607e-13,1.110477612149676e-14,6.466986593240956e-16,
  0.04546180438013942,-0.003209374063081601,-7.045777423979735e-05,-3.947530103821881e-07,
  4.8082911918377906e-08,2.6242559126595763e-09,7.317503564175163e-11,6.19181712525741e-13,
  -5.434306571691669e-14,-3.5133161249431018e-15,-1.1633199979702098e-16,-0.000529742908744843,
  6.911430906008106e-05,1.2566663038476585e-06,-2.001037733357599e-08,-2.531402310603192e-09,
  -1.0057476558736902e-10,-1.737551918300119e-12,4.875314354687081e-14,5.1097408655090306e-15,
  2.1165679361892416e-16,4.501285957699962e-18,1.1277261586882176e-05,-1.9268076636785702e-06,
  -2.6492554760079216e-08,1.2960273366076976e-09,1.0184274868371661e-10,3.2415745774760308e-12,
  1.1141958335577385e-14,-4.656187439719588e-15,-2.826797083566992e-16,-8.754365071073234e-18,
  -5.712516746584282e-20,-2.7604069212283407e-07,5.813584163240975e-08,5.321550324852432e-10,
  -6.022767456282307e-11,-3.803837838596831e-12,-9.34394816413113e-14,1.7111176241581175e-15,
  2.6773608997153775e-16,1.2584917706962153e-17,2.70387762431731e-19,-5.805889039840581e-21,
  7.286390586973695e-09,-1.829760726402758e-09,-8.085860610269681e-12,2.526919199312379e-12,
  1.3647328716636793e-13,2.3034499923308718e-15,-1.41622172788679e-16,-1.2838075792260365e-17,
  -4.897759722380464e-19,-4.994582644175107e-21,6.145867274675914e-22,-2.0161100564173938e-10,
  5.913331167031436e-11,-2.6047174996322505e-14,-1.0099104383192438e-13,-4.755384947510885e-15,
  -3.8942726345062244e-17,8.005799517336707e-18,5.570940589326395e-19,1.6992097981466176e-20,
  -9.767052045132075e-23,-3.9947416130694736e-23,5.757722213364022e-12,-1.9458952225524514e-12,
  1.0550453870099048e-14,3.92373160298564e-15,1.6147005909145068e-16,-3.4082060124411886e-19,
  -3.9082201127897816e-19,-2.2594391051658312e-20,-5.15323173674493e-22,1.6985257166537035e-23,
  2.1541938948712835e-24,-1.680967564405278e-13,6.487590738551388e-14,-6.83014044050987e-16,
  -1.4963438424254328e-16,-5.33904058218506e-18,7.94859120993379e-20,1.760356869364804e-20,
  8.690480072040047e-22,1.2419731787041271e-23,-1.192657893164041e-24,-1.0485961714448918e-25,
  4.984428557867771e-15,-2.184329645611685e-15,3.443620170137469e-17,5.630517832452127e-18,
  1.7119434491758975e-19,-5.407280005638145e-21,-7.525630563144446e-22,-3.1882748531959433e-23,
  -1.2504850496565409e-25,8.065137672464862e-26,-1.0935473652063803e-27,-1.4939710364870508e-16,
  7.410681542779583e-17,-1.5667590177186202e-18,-2.0969404003428993e-19,-5.2767018443903606e-21,
  2.897964172730008e-22,3.098104619200447e-23,1.0941112999029013e-24,-3.494542836386715e-27,
  2.9039045257534824e-27,-6.0524912979826076e-27,0.7408072311914072,-0.14636031947114286,
  0.0034884023402329527,4.223239312736513e-05,-4.128670631040568e-07,-4.369310724701433e-08,
  -1.3113518564496544e-09,-1.0819989322930757e-11,9.413072950216767e-13,5.477822047229952e-14,
  1.419148983267689e-15,0.03847665100170667,-0.0037742883687892407,-6.853410069183081e-05,
  8.903999384798732e-07,1.1789729630589906e-07,4.240537484101112e-09,4.0238054823890743e-11,
  -4.110219424429063e-12,-2.6875741634802465e-13,-7.790360759127648e-15,-4.42860844218908e-18,
  -0.00038281502186712947,7.735500571231054e-05,7.020945057593843e-07,-7.797364874845208e-08,
  -4.720315236384696e-09,-9.94281035370805e-11,3.233296605143813e-12,3.535035948443513e-13,
  1.3616178588584906e-14,1.2513981667066785e-16,-1.7137793711933683e-17,7.2836301437745504e-06,
  -2.044123466407859e-06,8.498291261043909e-10,3.3923537381383468e-09,1.523221462011954e-10,
  6.509750913407527e-13,-2.8754870927720107e-13,-1.752280555518451e-14,-4.071725715790155e-16,
  1.2187319071919999e-17,1.5274040426879578e-18,-1.5860538211165018e-07,5.83562607094743e-08,
  -6.010666837438882e-10,-1.3035915897507833e-10,-4.39472121654744e-12,8.80865706812661e-14,
  1.5404994403602096e-14,6.744958236497502e-16,3.8456585828059216e-18,-1.300419861251716e-18,
  -8.623428778731641e-20,3.6855136260537213e-09,-1.7344691701910849e-09,3.5850552313828796e-11,
  4.7407905574051215e-12,1.1059414410259156e-13,-7.050627813703497e-15,-6.834571777906975e-16,
  -2.123301552690898e-17,4.708846813089725e-19,8.081764457392083e-20,3.775388050247881e-21,
  -8.82813759817528e-11,5.28227539213822e-11,-1.6695823630480693e-12,-1.6665340178755058e-13,
  -2.103784399977779e-15,3.8189987036373304e-16,2.7153773526959362e-17,5.030385668589556e-19,
  -4.4137523449848266e-20,-4.021385266498675e-21,-1.3285040032213832e-22,2.127308208622699e-12,
  -1.6342178694681275e-12,7.062303541185806e-14,5.7092873275958184e-15,5.255731841161852e-18,
  -1.779590329794677e-17,-9.927036949211787e-19,-4.017140717047654e-21,2.6571530394720478e-21,
  1.738708794537896e-22,3.446916193961106e-24,-5.032131953637965e-14,5.1088621255118654e-14,
  -2.8416089594486346e-15,-1.9116016164621363e-16,2.379784466776613e-18,7.627074614143922e-19,
  3.3586349943020245e-20,-4.988564008609092e-22,-1.33871579566828e-22,-6.713901541755872e-24,
  -3.2828756284914653e-26,1.1277983360817273e-15,-1.608002849272781e-15,1.1093124796887267e-16,
  6.254221697721687e-18,-1.7741954050468798e-19,-3.0920609206024773e-20,-1.039349306432077e-21,
  4.476885244163306e-23,6.0774644219558126e-24,2.2781981130285654e-25,-2.5468633952109876e-27,
  -2.2216693003060542e-17,5.081848465319523e-17,-4.244346222663655e-18,-1.993876502929367e-19,
  9.612016802569193e-21,1.2025014643771489e-21,2.8218083285670777e-23,-2.6674740032474753e-24,
  -2.5708591020804674e-25,-1.1265322721106031e-26,5.764735301629135e-27,0.4774684835258115,
  -0.11661593941747243,0.003921103428068026,2.6910781604264344e-05,-1.599355420528295e-06,
  -7.322282882000609e-08,-8.288632367968026e-10,5.95059373939197e-11,3.562048854330779e-12,
  6.675293202150448e-14,-2.4026438856149905e-15,-2.135822161659262e-16,0.030440569644097804,
  -0.004241243527771812,-4.371821619744705e-05,3.448034810740107e-06,1.9702716732487314e-07,
  2.6284856680314522e-09,-2.2898257314286474e-10,-1.5637359127414456e-11,-3.375190021338238e-13,
  1.2394398484902781e-14,1.2458511873584802e-15,3.9041847467033665e-17,-0.00022642761180111898,
  7.784164681594265e-05,-7.273983745207914e-07,-1.6095637118040115e-07,-4.885863626451936e-09,
  1.425920285642353e-10,1.824603261471987e-11,6.022418102799922e-13,-1.0178204662546882e-14,
  -1.898207193872168e-15,-7.867208157383983e-17,-2.959633141601613e-20,3.3589057382246666e-06,
  -1.835408808936367e-06,5.489825682367699e-08,5.375833312466797e-09,5.268240362483945e-11,
  -1.2645747689680992e-11,-7.790602234195888e-13,-6.51282725547037e-15,1.7204258098359292e-15,
  1.1119264103489652e-16,1.756727120450728e-18,-1.8136984485642816e-19,-5.2309908951225504e-08,
  4.6389695787827885e-08,-2.447651320905004e-09,-1.6063770482948474e-10,2.38448552040508e-12,
  6.281096026153865e-13,2.3586696678186562e-14,-6.998214804180677e-16,-1.0899094251304065e-16,
  -4.021607625659946e-18,8.384296949051865e-20,1.5976570965714e-20,6.936019232676606e-10,
  -1.2072611040137268e-09,9.543345818936402e-11,4.363793533373557e-12,-2.1877867427955756e-13,
  -2.522988359296397e-14,-4.465570057284567e-16,6.332235543244504e-17,4.930739813991111e-18,
  7.214798397500802e-20,-1.1296766571087453e-20,-8.693783601970606e-22,-2.198141470691504e-12,
  3.171033734936489e-11,-3.5027555369459475e-12,-1.0386243177846889e-13,1.170683030582396e-14,
  8.863490252695916e-16,-4.009523072071163e-18,-3.5301603489486395e-18,-1.7611931168202551e-19,
  2.4897840368204358e-21,7.366961694072939e-22,3.4394762682043965e-23,-3.808522145372061e-13,
  -8.284394535981728e-13,1.2417913845189328e-13,1.862247884086346e-15,-5.234446573845645e-16,
  -2.7633768970781945e-17,9.642330224617778e-19,1.6021808723653148e-19,4.780672769903596e-21,
  -3.352804067443547e-22,-3.631426847275701e-23,-9.178762699245244e-25,2.3218632049933123e-14,
  2.120324819354438e-14,-4.301360817715177e-15,-3.223721159084226e-18,2.126193493239409e-17,
  7.424544433752004e-19,-6.447746945696023e-20,-6.35879354640715e-21,-6.48494802333587e-23,
  2.1797211906492584e-23,1.479278188420795e-24,5.230955671772115e-27,-1.0312983784384146e-15,
  -5.204427544016337e-16,1.4641986842408364e-16,-1.9997172212272398e-18,-8.104614787056058e-19,
